1843 32
1705 -0.57675034 -1.2208596 0.34009305 -0.60412234 0.1021041 -1.070326 -0.28853294 0.34588256 -1.8727192 -1.6950672 -1.0577248 -1.3064821 -0.8175318 -0.6514199 -0.38427508 0.65919834 1.0081569 -0.38693315 -1.4085344 -0.29606888 -0.15226474 0.13639092 -0.8891179 -0.04287888 -0.053188495 1.5497522 -1.4091913 -0.34221506 -0.95512265 -1.1789668 1.2970747 -2.1552374
180 -0.45489642 -0.11334103 0.03135387 0.41748238 0.1265151 -0.299562 -1.1863352 1.2793636 -0.16799022 -0.9469949 -0.43520382 -0.8851083 0.77987576 -1.3013198 0.42820275 1.3587837 1.6343638 0.77815354 -0.6241975 -0.7907312 0.9054015 0.4334489 -0.22757985 -0.040730596 -0.8036503 0.77619714 -2.1014633 0.70829564 -0.8554934 1.466307 0.7640385 0.46528742
549 0.8674622 -0.89072335 0.5196301 -0.6710614 -0.2073342 -1.7074709 0.21448968 0.30892077 -0.9846224 -1.230204 -0.942253 0.13488673 -0.88713765 -0.5180332 1.0394863 -0.65026414 1.013263 0.14028619 0.24973261 0.55705786 0.8279413 0.66418356 -0.6517374 -1.734106 -0.9133561 0.9351059 -1.7208192 1.4848396 -0.79955983 1.0788113 -0.038373422 0.7533805
874 -0.6338508 -1.0265968 -0.5115046 -0.01612499 -1.0930587 -1.5387806 0.17224713 1.676672 -0.9757182 -0.38506868 1.0206702 -0.8697124 0.32419106 -0.27077836 0.8530211 -1.5196846 0.5876006 0.6869995 -0.3909938 -0.48712495 0.15547562 -1.637413 -0.5205695 -0.77552015 -0.5521753 0.98404145 -0.9999975 0.180496 -2.243189 -0.4654274 0.17907779 -0.6866265
1060 0.2081421 -0.72880363 0.7872336 0.87524617 -1.9983437 -1.4819242 0.358789 1.1654259 -0.56563455 -0.78174293 1.4113537 -0.061314043 -0.44820434 0.47902256 0.6065531 0.9326521 -0.13499779 -0.4396796 0.26591298 0.09848634 0.010088315 0.55977666 -0.0030897926 -1.4060234 0.2423068 1.828626 -1.8917487 0.22603142 -0.8449258 0.63613635 0.15095976 0.9503995
1386 -0.24369739 -0.10289039 0.7983648 -1.5390658 -0.887169 -1.520996 0.24266665 -0.04006681 0.5407115 -0.27173927 -0.24762315 -1.3989624 0.69485295 -1.0098888 1.2608104 -0.028670851 0.16985853 0.8512463 -0.19040951 -0.2376527 0.14456016 1.4194959 -0.8682324 -1.108455 -1.0646822 1.9431539 -1.8118862 -0.5632777 -0.5997609 -0.12296515 2.038926 -0.41918772
157 -1.0097867 -0.7342014 0.110337995 -0.27120435 -1.2059827 -1.9299513 0.15746689 0.9601805 -0.022697877 -1.2477899 -0.36791682 0.54548985 0.78024846 -0.16375148 1.50483 1.26174 1.0799893 -0.22389641 -0.43340242 -0.03103629 -0.518784 -0.22758955 -1.8869948 1.001505 -0.95869476 -0.122569874 0.03285005 -0.1694965 -1.1017665 -1.821998 0.64400595 1.2719102
1770 0.83283365 -0.10998475 0.31370562 -0.23855388 -1.3285252 -0.26651576 -1.3002695 1.4673117 -0.052729715 -1.2909895 0.48717102 0.5698505 0.15174873 -0.09440998 0.44227782 1.1571752 0.6817856 0.6375976 0.9828175 0.30355832 -0.7762656 -0.79982394 -0.65869033 0.27297866 0.2467609 1.6054778 -1.4125271 0.034876492 -2.306497 -0.19866407 -0.6448978 -1.4985479
650 0.08318382 -0.61876327 0.9678984 -0.75578046 -2.0745575 0.17929289 -1.2084265 1.0250022 -0.21393138 -1.1601813 -1.637772 0.7074824 1.6873366 -0.66415846 1.3962173 0.09058406 0.96046776 -1.0741959 -1.17146 0.66990143 0.14431633 0.40925947 -0.7412575 -1.4081814 0.23582076 0.95453775 -1.9224998 -1.0545157 0.0917036 -0.28502792 1.0446087 0.61838603
301 -0.20896664 -0.4935405 -1.2101014 -1.8671942 -0.46844614 -0.52911896 -0.5377317 0.94039106 -1.7615433 0.017577853 -1.2232984 -0.37349457 1.0930886 -0.07629571 0.4675104 0.55753726 0.38636047 -0.83212644 0.45424628 -0.089705124 -0.720881 0.35749123 0.5677711 -0.83125186 -1.5234026 1.1279635 -1.8281139 0.14390893 -0.52859277 0.79180485 1.9178483 0.33386397
1753 1.7413952 -0.9386212 -0.89342844 -0.38745895 -0.8425379 -1.3924338 0.47058353 1.6803931 -0.8612033 -1.7683465 -0.835742 -0.37292472 0.55580896 0.47147146 1.0770292 1.3114308 1.3834221 -0.5981401 -0.74371016 0.41999182 -0.1803785 1.5881236 0.3409442 -0.96405154 -0.15636165 0.2952691 -0.12135488 0.20350781 -1.5312939 -0.26063818 0.45545253 -0.41442084
238 -0.5171245 -0.84802496 -0.9053253 0.039692715 -0.24739818 -1.1666223 0.6825205 1.5471675 -0.13298754 -0.8403797 -0.7496996 -0.64566 1.0654106 -1.3091453 0.9117988 0.33593482 0.5081588 -0.08880077 0.6061873 1.4379994 -0.001249841 0.5297736 -1.8369609 -0.9520152 -1.2217988 0.12807173 -1.1572869 1.0755036 -1.3131832 -0.9987713 -0.08693802 -0.65804344
307 0.6884307 -0.05361512 0.3674709 0.19014192 -1.149212 -2.6123102 0.19801563 1.2176794 -0.21971981 -1.0698794 0.38317847 0.034744043 -0.66970176 -0.78378266 1.3062491 0.88853544 0.19484222 -0.034200992 0.3775662 -1.2317152 0.5582244 0.18532673 -0.69993514 0.56702656 -1.3114802 0.22746597 -0.6818499 0.9108291 -2.2610037 0.7720518 0.26472726 0.4775898
91 0.26778367 0.78196704 -0.80672395 -0.29404244 -0.952958 -2.7909787 -0.30825788 1.0382316 -1.5612385 -0.82687277 1.045297 -0.33975697 -0.028885748 -0.06481408 0.014439968 0.4433106 1.2493017 0.11977558 -1.2808992 -0.13205722 -0.101681575 -0.055841904 0.3907971 0.49620846 0.3174225 1.679572 -1.2999713 -1.2191575 -0.16896184 0.078103244 0.55504525 0.17380176
592 -0.93559605 -1.1023949 -1.7139847 -0.7767335 -1.2336426 -0.7830946 0.65528524 0.22483118 -2.1229353 -1.7345443 -0.2297716 0.25512427 -0.46562958 0.41265833 1.6747829 -1.1059941 0.17689951 0.2918584 -0.40149438 0.56635493 -1.5683533 -0.22258368 -0.5352982 0.07856505 0.4190452 0.4206655 -1.325222 0.43636483 -0.8442917 -0.99153405 0.8865032 0.8180235
497 -0.40729925 1.1591021 -0.42022198 0.110835604 -1.6584922 -2.3606122 -0.69716483 1.7130816 -0.65519965 -0.45472667 -0.4867084 1.2294878 0.9541865 -0.445939 1.5617771 0.19244698 -0.034672216 -1.5667053 0.0015524742 0.06251892 -0.41711223 -0.42893526 -0.6939625 -0.8268387 0.390802 0.3358897 -1.2257062 0.61196303 -1.5115238 -0.8994596 -0.47431323 -0.1420287
1819 -1.7910779 -0.41658267 -0.40652773 0.49996772 -1.6538584 -1.7446666 -0.10734731 1.7734425 -1.2142941 -0.061320744 -0.3174316 -0.39141348 0.675118 -1.4168242 1.1222442 0.7271173 0.87516606 1.2480711 0.46376294 1.178336 -0.24991654 0.20685855 0.8394346 0.1188164 -0.18517166 0.65643126 -1.4572289 -0.367974 -0.39004937 -0.725223 0.057392277 0.862839
1430 0.3758641 -0.026684068 0.852358 -1.2203579 -2.9446135 -1.5246031 -0.35477763 0.53780204 0.9400981 -1.8254198 0.42291307 -0.3923272 1.0780382 -0.11959486 0.059407845 -0.26678422 -0.122683115 0.29044372 -0.7822914 0.7080617 -1.7899185 -0.7313474 -1.25481 -0.41252163 0.57122266 1.0709337 -0.76903164 1.262642 -0.3308828 -0.8338379 -0.32483566 -0.36551732
1157 0.35881642 -0.1456272 0.3491084 -0.539122 -2.4586139 -0.26286694 0.83273107 0.97706676 0.3132071 -0.36177415 -1.6229426 -1.2588412 0.48265624 0.053195085 -0.22377549 0.27364603 1.9277097 0.3113955 -0.62015384 -0.54080594 -0.4571742 -0.58942413 -0.8437585 -1.254522 -1.3013078 0.07598729 -1.2950115 0.79426956 -2.5143175 -0.6575871 0.5623879 0.49754056
988 -0.44960672 -0.2136378 0.5153745 -1.3631904 -0.93630326 -0.8722935 -0.8022902 0.82814866 -2.146722 -1.3214777 0.5211848 -0.41602334 0.24979046 -1.0404879 -0.22036053 -0.63861966 0.52029055 0.16199854 1.5593263 0.5776255 -1.4216651 0.57793814 -0.34842992 -0.18004002 -0.82046425 2.2723227 -0.54402137 -0.9963748 -0.6559778 0.019258613 0.7742293 -1.193484
703 -0.59451836 0.0177937 -0.70255756 -0.0738944 -0.21614772 -2.1985104 1.7719289 1.7256323 -0.28863558 0.2935594 0.32190454 1.1254824 0.6557459 -0.18573199 2.6133943 0.31494597 0.36891398 -0.49344832 -1.4421226 -0.18790661 -0.99633986 1.3098704 -0.32154012 0.14830175 -0.029030023 1.5845306 -1.1817486 0.66389084 -0.7545085 0.9881273 0.5669516 -0.19013819
1088 1.2124708 0.51975363 -0.2698496 -0.41081908 -1.8960297 -2.3791096 -0.30656284 0.091710754 -0.93328404 -1.2762706 -0.19312336 1.2744895 -0.21706504 -1.2702112 -0.18989184 0.71973985 0.15819357 0.3742382 0.6583031 0.7332964 -0.77799714 0.38693956 -1.4819053 -0.2608482 -1.2960094 0.4310976 -1.5565978 0.11174937 0.49993 -0.098268814 0.29681647 0.21886027
265 -0.1900866 0.0070776814 -0.27365866 -0.9999288 -1.5874419 -2.3709064 -0.33902952 0.07236315 0.03336912 -0.5796539 0.3579019 0.31552967 0.43315807 -1.6615416 -0.290011 -0.100665756 0.63268137 0.30370438 -0.61771667 -0.10617081 -0.22828795 -0.0733307 -0.44514447 1.1982881 -1.0523633 1.3817196 -1.3638366 0.42029148 -1.2309146 1.2638164 -0.46350056 -1.7619504
1557 -0.8502059 0.75612354 -0.6895414 -0.18564573 -0.9705607 -0.7789085 -0.08768747 1.8932062 -0.16413203 -1.1651297 0.27093416 -0.30117723 1.9096338 -0.22552657 1.1122701 -0.3173149 2.3822403 -0.7350431 0.13143592 -0.29118606 -0.24981998 0.2897386 0.15152651 0.59934294 -0.3851905 1.5086997 -1.1244075 -0.53195 -1.193066 -0.05346446 -1.0385717 -1.6403847
460 0.27176657 0.2510745 0.18760504 0.6693073 -2.4816353 -0.93903106 -0.78499293 0.49072447 -0.6040386 -1.6060256 -0.85307056 0.79773474 0.51443976 0.12939128 0.12515385 1.0394075 1.1227732 2.3483624 -0.7962611 0.2055685 1.4820162 0.8475695 -1.1475664 0.3646904 0.022692455 -0.046008132 -1.4008613 -0.23978733 -1.5514318 -0.42051503 1.3108828 0.32825148
168 0.7295394 1.4701885 -0.17550433 0.13388802 -0.9196941 -0.80295604 -0.16041616 0.44721198 -1.6999885 -0.65094566 -0.14299373 0.2086794 0.01667166 -1.2737389 1.4585835 0.8546958 0.97065544 -0.06744521 0.053869244 0.38560697 -0.4198178 -0.3543931 0.724655 -0.6529429 -1.5766234 2.0438907 -1.5794402 -0.118378386 -0.824844 -0.82128465 1.6909112 -0.46657246
1142 -1.0037575 0.579379 1.6246861 -0.5291594 -1.0275514 -1.523685 0.29612526 0.30575904 -1.9375172 -0.8369445 0.18301672 1.2395892 0.8458947 -1.1602993 -0.11885764 0.43634284 0.64418894 0.2295184 -0.73872715 -0.77143633 -0.0034549858 0.42192855 -0.092005685 -0.6236191 -0.8815846 1.2290806 -0.36263728 1.2166973 -0.99002826 0.3457333 0.76066965 2.2644842
1516 -0.0027907412 0.63159275 -0.25103948 0.11343761 -2.3461745 -1.31965 -1.5475949 3.2205932 -0.3510966 -1.0847075 0.3369827 -0.88029194 0.8310735 -0.61976075 0.6696271 0.3576742 0.26684216 -0.112420544 -0.2912613 -0.34392968 -0.6544448 1.1669872 0.41189474 0.14470209 -1.0393529 -0.543441 -0.646213 -0.17412294 -0.08864343 0.89697677 1.2044748 -1.3706058
1799 -0.09658449 1.214371 -0.039417032 -0.45204338 -1.2491004 -0.019406976 -0.6463933 0.9824604 -0.19364448 -1.8507135 -0.7333474 -0.7436911 -0.08219278 -0.28596556 0.6322041 0.4370752 0.1624494 0.13630381 0.28302622 1.5913731 -1.23067 0.8584565 -0.31674248 -1.1211116 -0.71039426 2.383429 -2.0640857 0.19669423 -0.2107559 0.66799057 -0.2799053 0.69511473
1424 -0.42874143 0.06267951 -0.69287294 -0.46769956 -2.1482513 -0.86630577 -0.45741484 0.62888044 0.18357483 0.11032339 -0.626119 1.4867795 -0.7036162 -1.5379454 0.26309672 0.29636988 0.45673978 0.35697573 -1.17505 -0.024203803 0.04212743 0.17998701 0.48966616 -0.25227046 -0.15442555 1.1933308 -2.601734 1.6010886 -0.18536024 0.63741815 1.4702479 1.1828877
1189 -0.94205976 -0.11219582 -0.511465 0.70459384 -1.6179549 -0.52675736 -0.54583025 -0.10754415 0.33713242 -2.096604 0.05436789 -0.31227896 -0.77755785 -0.90286857 2.382632 0.08437155 1.176776 -0.4831002 0.032153483 0.17723577 -0.035341263 -0.11626756 -2.1089728 -0.65550506 0.562779 0.7699669 -0.8452663 1.3905867 -1.4260148 0.80519897 0.9704956 0.39243847
1426 -1.8090817 0.33752012 0.48366886 -0.2446431 -0.30935094 -1.8678236 -0.63181275 2.71291 -0.0534895 -1.1922783 -0.14761701 0.11387126 -0.28802717 1.214278 0.8054069 0.024742447 0.24777938 1.2295164 -0.8029426 -0.4969898 -0.3003307 0.9742968 -1.4903246 -1.1304886 -0.84941906 0.14775485 -1.3139288 1.0518478 -0.52001756 -1.2169099 -0.17881782 -0.33479604
77 -0.301013 -0.27088135 -1.5289872 1.5771838 -0.7120799 -1.5073607 -0.3490671 0.6892394 -0.08764087 -1.7544848 0.82004553 0.013612055 0.36475152 -0.5343269 0.5199615 0.65887564 0.071627155 0.12133947 0.25321516 0.6834409 -1.4760478 0.3504521 0.030157527 0.07113206 -0.20729868 1.940211 -1.9108561 0.55150366 -0.52520615 0.14633 1.1590756 -1.5761645
1429 0.37805364 -0.14811414 -1.7534091 -0.62010074 -2.681158 -0.60245657 -1.2413489 1.5552857 -0.46918 -2.242004 -1.6134138 -0.09155887 -0.07298052 -0.3144764 0.77951086 0.2182304 1.270396 -0.05321908 0.01862711 0.2439722 -0.14152491 -0.3604215 -0.14350995 0.6181083 -0.5513262 0.0885407 -0.47175995 1.4225982 0.05925165 0.5707066 -0.93384373 0.8597896
1827 -0.6284935 0.23493564 0.3005505 -0.631698 -0.3902481 -0.8048312 -0.86883837 -0.58208185 -0.27634907 -2.3856864 -0.31690547 -0.06238102 2.3596554 0.4966184 0.976693 1.7160848 0.5297374 0.24549736 0.74223894 0.031952266 -0.41467634 -0.94292265 -0.8632543 -0.0691029 -0.88691777 0.91991967 -0.9915992 1.1247563 -0.96055377 -0.14002728 1.4051739 -0.74551344
1173 -0.875953 0.040246323 0.20378335 -0.6178359 -2.437089 -1.6662874 0.66710997 1.4805537 -1.2021729 -0.7119261 0.81628644 1.1037232 1.4757961 0.45705542 0.56361425 1.1958655 0.9525687 -0.8359 -0.38771278 0.69709885 -0.54685354 0.48209283 0.5141294 0.4242989 0.1702874 0.3551532 -1.4439884 0.5370513 1.2933434 -0.48415244 -0.1569918 -0.21921699
1711 0.7209009 -0.25157407 0.9657164 0.44437557 -1.6906494 -2.5492525 -0.42779395 1.7338868 -0.5117711 -1.106567 -0.98610955 1.2688643 1.5264593 -0.66749156 1.6250423 -0.504481 0.700912 1.13548 1.035623 -0.5886285 0.27260375 -0.04996584 -0.55300754 0.08303781 -0.4868138 1.3176329 -0.67054415 -0.9712422 -0.21568073 0.62647057 -0.0329194 -0.13214077
1207 -0.5461992 -0.82303876 -0.18205415 -0.43264192 -1.2069643 -2.18685 0.25206143 0.3324314 -0.9972819 -1.031742 -0.20304497 -0.5008705 0.04504313 -0.80706805 0.77392566 -0.19960488 2.5408387 -0.76542866 -0.34995413 0.08664898 -1.8349806 0.73032385 0.71059716 0.03213261 -0.37344694 0.491073 -0.24630499 1.6460682 -1.227339 0.45422393 -1.1543474 -0.124630205
1802 0.8586537 0.104386985 0.582957 -0.42394 -0.6375369 -1.3480126 1.3145599 1.7553756 -1.3280046 -1.044168 -1.7717718 0.7811874 0.86241424 0.079997145 0.7541154 0.6541266 0.53330624 0.47923422 1.0926518 -0.5430298 0.5904371 0.22422098 -0.6199915 -1.1614323 0.53211266 0.72673213 -1.9472973 0.74603105 0.6477858 -0.6267548 1.6082162 0.7021344
1319 -0.16975518 0.53803366 0.17833564 -1.9762596 -0.92150533 -0.32889083 -0.9344942 -0.16356786 -1.1233305 -0.73024464 -0.2946622 0.29339772 0.22072193 -1.1185644 -0.26269963 1.2282374 2.5107772 -0.25885412 -0.07187635 -0.17720956 -0.27858204 1.0625947 -0.044578884 -0.20962507 0.4239309 2.0555017 -2.0945096 -0.041042097 0.34360412 -0.115795754 0.5445714 0.22433141
1825 0.12780745 0.28449234 -1.1514218 -0.6407269 -1.2461386 -1.3178707 -0.33839613 0.62620544 -0.27792597 -0.13884744 -0.33872044 0.1283477 3.4947681 -0.799483 0.52603084 1.127573 1.0425828 1.0428067 -1.2224494 -0.33218116 -0.32144782 -0.7910564 -0.26577857 -1.1358825 -0.6133463 0.91768116 -1.3356347 0.7790924 -1.1112386 -0.37715745 -0.19522096 0.0681739
990 -1.2005872 0.628403 -0.52613455 -0.5005378 -2.0471287 -2.1319525 1.7317687 0.08131583 -1.0442435 -0.91346157 0.8859623 -0.34338015 1.0787436 -0.26426566 0.7473605 0.28334445 0.4913144 -1.1864427 1.5830612 -0.151797 -0.17730023 -0.33428392 -0.4040381 -0.900451 -0.84417075 0.99619067 -0.54608756 0.49377564 -1.1996342 -1.0690562 1.167897 -0.36335263
1441 -0.5498638 -0.55169994 -0.32019672 -1.3963782 -0.56836456 -1.9574339 -0.28779107 2.0812995 -0.66455203 -0.6002207 -0.22329149 -1.1772349 0.88823014 -0.72169787 0.65885955 1.3351799 -0.080508746 -0.51997846 -0.24162576 0.5148544 -1.2958496 0.3688792 -0.09964932 -1.3342733 0.16217329 1.0541956 -0.8219648 2.3692465 -0.05750799 -0.091614835 -0.3360212 1.4456547
1316 -0.11920485 -1.0184703 -0.113738224 0.108431466 -1.378986 -0.9780687 0.31562373 2.4360185 -0.20271072 -0.118200906 -0.43688792 0.366107 -0.60908544 -0.6519654 -0.5365006 -0.8072736 1.7164308 -1.2590796 0.29087883 0.05368739 -0.34546214 0.6304373 0.045603637 1.3007406 -0.98654735 1.4372805 -2.3606865 -1.4198356 -0.79214656 -0.030757912 0.6734906 -0.058250867
1385 -1.0966952 -0.071438834 0.46352065 0.41613546 -1.9524249 -1.1137902 1.4067631 0.11956254 -0.036148746 -1.9125483 -1.0608639 1.4998944 1.2090759 -0.17374031 1.1375287 -0.8920395 0.83881897 0.20532563 -0.42401034 0.9600165 -0.046620462 -1.1714027 0.020895952 -0.33692428 -0.7496742 0.53106415 -1.1256465 1.8040768 -0.6482411 1.0807625 0.83257645 0.08211598
857 0.638731 0.041320506 -0.4948866 -1.440922 -2.3891006 -0.7093605 0.37613904 0.1347168 -1.1383104 -1.6615236 -0.38933894 0.33901423 0.7659689 -0.627163 -0.20374553 1.6340728 1.4754516 -0.37534603 -0.08229522 0.19445617 -0.28813812 0.3406179 0.12306721 1.0424352 -1.5592384 -0.5130388 -0.048937805 0.8180821 -1.7768453 -0.031758737 0.5982978 -1.0840595
1219 0.7286942 -0.47452754 0.88611495 -0.8778333 -1.2425574 -1.9368205 -1.5383317 0.3631052 -0.16067477 -0.7276253 0.790482 0.5567433 1.0713853 0.7782524 2.3660645 0.8361858 2.1028092 -0.07039429 -0.49111462 -0.7516598 0.34607196 0.6841407 -0.13160104 -0.40233186 -0.08324289 0.8672902 -0.99970746 0.9297084 -0.9820216 0.36774084 -0.12410607 0.5628072
1652 -0.23244038 0.64425445 1.684354 -1.151955 -0.94357216 -0.6072832 -0.6031396 1.0677848 -0.9122346 -1.5754397 0.21906896 0.11189476 0.3143113 -1.252741 0.14846823 0.7241776 0.7491983 -1.9873126 0.37415355 1.0078884 0.68890136 0.27073726 0.361103 -0.029184593 -1.060373 0.733997 -2.06541 0.56123614 -0.28105688 0.9053271 1.3594929 -0.9516088
200 0.3256936 0.17815141 -0.32698146 -0.39289027 -0.78729224 -1.5522718 -1.8513796 0.888603 0.18331556 -1.3507416 0.14680679 -1.1998373 0.009745472 -0.21295102 1.0763403 -0.7705071 1.4452466 0.6309789 -0.9600056 -0.6255312 -1.3879522 -0.50428903 -0.67628264 1.3232645 -0.92174387 1.4660894 -1.6345011 0.67922395 -0.46821138 -0.61160666 0.43786085 0.28502893
551 -0.41111094 1.1971112 -0.23165658 -0.78289026 -0.4781549 -0.7850756 -1.1040968 0.820821 -1.2021394 -1.7260319 -0.4089961 -0.31085855 1.5321162 0.27089924 0.39517203 -0.23920318 -0.4329478 -0.90367883 -1.3438443 -0.70565814 -0.34541127 0.21980792 0.5123497 0.1596983 -0.19017853 2.4149418 -1.5528988 1.1476332 0.056907464 0.4287108 0.886803 -1.2796605
1120 -1.8140864 -0.042433076 -0.3683677 -0.8200646 -1.4598129 -2.4882543 0.16037703 0.71614045 0.26382747 -2.2077746 -1.6456101 0.22181484 0.38040334 0.18656452 -1.06393 1.7001784 1.6374432 -0.4637844 -1.2642208 0.2769296 1.1954919 0.20236003 -0.20540725 -1.6978439 0.15999973 0.8689168 -1.8011779 -0.08120213 0.3950143 -0.37621886 0.63537675 -0.0567008
1656 0.5618177 -0.12763314 0.2824477 -1.6906176 -1.4948455 -1.7255679 0.2891649 1.4654459 -0.040761873 -1.0839444 0.102319166 -0.8143652 0.5114523 0.02243087 1.4640275 0.4304424 2.0378368 -0.028721258 0.63825595 0.3919122 0.88792825 0.100642405 0.58127594 -0.08026021 -1.1922116 -0.76284397 -1.8829453 0.11139762 -0.05621444 -1.3264151 1.4892557 -0.16733164
405 -1.7248824 -0.5734356 0.7693349 -0.3822972 -1.0143069 -1.7014235 1.2691334 0.565073 -1.5142399 -0.40835318 0.68924063 -0.033925526 1.734138 0.9583459 0.21481197 0.20814055 1.2942717 0.9251914 0.024462651 -0.63793707 -1.5690521 -0.39757928 -1.3119638 0.07377638 -0.6338589 -0.07044981 -1.1118176 2.2037938 -1.056902 0.043593943 0.20720647 -0.935652
956 0.34642875 0.45910951 -0.1255417 -0.9082581 -0.9903758 -1.9168845 -0.54126984 1.6041833 -0.47207335 -0.9622392 -0.40411434 0.8565498 -0.22699556 1.1831769 -0.13437138 -0.35519913 0.6448633 -0.2277033 -0.45184115 -0.07107914 -1.2320095 1.8776408 0.4700014 0.18956627 -0.2679934 2.2650225 -0.54604495 1.003938 -0.28272557 1.2791551 1.7129669 1.6090145
908 0.18899263 -1.8313689 -1.8503933 -0.51862943 -1.6586945 -0.3200319 -0.14295566 -0.005197279 -1.3709445 -1.6723866 1.0257496 -0.5834368 0.3947658 0.15990385 -0.19219194 2.4638207 1.0670768 -0.07639233 -0.28969046 -0.27441773 -1.1844121 1.0623115 -1.3968062 -0.54395324 -0.9118371 1.801852 -0.9126901 0.7091754 1.0071448 0.28613994 0.9067884 0.4719102
851 0.41764647 0.03719182 -0.034114465 -0.10885434 -0.29115862 -1.1549817 0.05816842 1.0545101 -1.0069927 -1.116351 1.223261 -0.07147974 0.704563 -0.51115215 0.22106297 0.9342923 1.0784119 -0.25116867 0.58838165 -0.8111596 -0.6843353 0.022840455 -0.6690798 -1.9489722 -0.94421506 0.76288694 -3.3728757 0.024749387 0.478217 -0.277564 0.24225718 -1.1478853
1209 -0.22704588 -1.3619938 -0.6738468 0.21570978 -1.8910277 -0.76565886 -0.9125345 0.46625483 0.25990817 -1.2312022 0.33186394 -0.79630136 2.1519115 0.5408614 -0.2586451 -0.6258248 0.23311976 -0.09544773 1.1687435 -1.0586075 -0.47531396 0.5782459 -0.8205998 -0.19470257 -0.7873139 0.9141878 -2.406967 0.7074444 -1.2349323 1.2658865 1.4204452 -0.6917002
959 -0.03295118 1.3026193 -1.226887 -1.1699266 -1.001209 -0.26014474 -0.9197179 0.9312096 -0.52805734 -0.9405598 0.5888093 0.8626506 -0.04451347 -0.5116555 1.006924 -0.3937994 0.38890457 0.010937019 -0.9452126 0.8708224 0.46027637 -0.4230825 -2.0495875 -0.76104885 -0.3170139 1.187778 -2.7115302 -0.51566684 -1.6489143 -0.63679606 0.5010618 -0.27324077
820 0.8662851 -0.33642685 0.7915846 -0.47908956 -0.7206735 -1.4565219 0.20000133 0.70584905 -1.5791943 -1.18235 1.568754 -0.15227038 0.50423086 -0.13475959 1.8919696 1.2969733 0.76869756 1.258802 -1.1470802 0.7820936 0.5060889 -0.4243224 -0.77327675 0.56995785 -0.012483569 0.7392117 -0.82983214 1.9685776 -1.0990554 1.5693392 0.45027664 -1.5777962
725 -0.8776723 -0.37787935 1.9350266 0.3386774 -0.913279 -1.0464271 0.3991434 2.1489768 -0.66545546 -1.1760864 0.17558223 0.9143768 -0.61241454 -1.1969928 1.063027 1.6922469 2.3584762 0.6464953 0.4764223 0.1591095 -0.12607479 0.14482851 0.26854452 -1.014017 -0.42298812 -0.13601416 -0.0033353688 0.20453288 -2.0640955 0.054961983 1.5162265 -0.49223974
1420 -0.7547033 -0.3135689 0.6896368 0.6273846 -1.3981326 -1.9003999 0.58099097 3.4266558 -0.6192221 -0.9286979 -0.9193451 0.076232314 0.2768036 -0.18303464 -0.07304714 -0.18233617 0.61730576 -1.1487039 -0.03718079 0.14482166 0.9685006 -0.41188475 0.4742448 0.21298552 -0.04209047 0.44676402 -0.5186508 2.2057443 -0.74882436 1.3324361 0.98392296 0.406533
1485 -1.0401094 -1.5116935 -0.13012896 -1.22622 -0.8241124 -1.3727908 -0.3192899 1.3181435 -0.728378 -0.24753134 -0.72107923 1.4504933 0.35393605 -1.6652943 0.81382316 0.3850808 1.020538 0.22678342 0.0747726 0.9676157 1.7710081 0.3726571 -1.469495 1.2762047 1.6765138 1.0156753 -1.2290443 1.2286795 -0.19111352 -0.409239 1.4872363 -0.33521825
1175 0.9142347 0.4614038 -0.2215564 -1.9337356 -2.0023186 -0.79239017 -1.1357394 1.2254541 -2.1653216 -0.9098201 0.2510896 -0.2967028 -0.364856 0.38695663 0.02343823 -0.75826865 -0.13398048 -0.29284546 -0.43107262 -0.12362378 -1.0052615 0.051896207 0.56352025 0.8981242 -1.0647066 0.51597923 -1.9524815 0.030115208 -2.1499536 0.9103365 -0.06326847 -0.18685916
1357 -1.145985 -1.0404024 1.765267 -0.8880135 -1.7726501 -1.192564 0.1975234 0.8902973 -0.5478575 0.15689935 -0.88154036 -0.48825374 0.95551115 -0.32644993 2.1360888 -0.13290368 0.38676375 0.24225456 0.8394164 -0.39235276 -0.010299066 -0.9586698 -2.0075834 0.59765404 -1.1313169 0.3738519 -2.45449 0.27815086 -0.666605 0.7060109 -0.25015515 0.03165689
1213 -0.8445247 -0.8676735 0.76416117 0.7730448 -1.2492256 -0.86619216 0.89154357 0.5935263 -1.1408054 -1.546534 -0.20505156 -0.3581319 1.0746709 0.33250234 -0.23101592 0.3474477 1.3193154 1.3331627 0.5734408 -0.5398648 -0.9997654 1.4423237 0.82439476 -1.446958 -1.963061 1.3216966 -1.2419078 -0.24666679 -0.8030691 -0.22035998 1.1741035 0.47876412
309 0.14575934 -0.48863086 1.181947 0.37280416 -1.4571038 -0.85318935 1.0538872 1.3593247 -1.4487506 0.10267804 -1.4287231 0.16090395 1.0526054 -0.18845525 0.1118703 0.8550095 1.6254157 -0.13155513 -0.70161927 0.22584179 -0.688242 1.1206443 0.3274824 0.24478078 0.32171625 1.2172265 -2.31754 0.7213753 -0.21953836 1.4755038 -0.050408322 1.1536326
1373 0.9440677 -1.0442564 0.8633758 -0.5099279 -0.31903166 -2.036593 -0.10237771 1.5010947 -0.16436775 -1.65996 1.398244 -0.12486275 1.2393116 -0.20452774 -0.14536697 -0.5957591 1.3453902 0.105184086 -0.8245194 0.05081702 0.49132463 1.22033 0.051821053 -0.4443219 -1.5070335 0.35930538 -1.3037429 0.96893716 -1.9274799 -0.5000257 0.122609936 -1.477094
1532 -0.5321035 -0.05914463 0.37592342 -1.5988084 -2.2304325 -1.5334306 0.50338453 0.8026235 -1.6277324 -0.11872458 0.2875982 -0.6807248 0.54729307 0.10476374 -0.20339999 -1.5893495 1.445844 0.7446289 -1.3729001 1.0718881 -0.7404604 -0.35158363 0.7417827 -0.17016949 -1.7926601 1.2754756 -1.4607873 0.56987345 0.31383336 0.064276874 0.4838683 0.7259791
557 0.25441846 0.58694214 0.79964846 -1.5522474 -1.6296616 -1.5991892 0.47911793 1.2367533 -0.17891128 -1.5949688 -0.75836307 -0.65102655 0.85527694 -1.4131918 1.2927626 -0.6470621 0.8171826 1.1403598 -0.27613786 -0.99892044 -0.24410987 0.6568801 -0.18036838 -0.7821787 -0.34549576 -0.71653044 -1.5644118 0.73057216 -1.2381094 0.90092474 -0.90662813 -0.87445897
647 -0.27861974 -1.9119294 -0.047575165 -1.6982428 -1.5246085 -0.4783751 -1.2560121 0.9834359 -1.2873999 -1.011703 -0.06710062 0.10507242 -1.1596669 -1.5297737 1.4461223 1.3582767 1.0019243 -0.1801176 1.3215212 0.85822755 -1.0184923 -0.42068106 -0.719068 -0.5207626 -0.8402478 0.6823642 -0.2478227 1.1840974 -0.4331172 -1.2044669 1.0156444 -0.49416503
971 -0.4540103 -0.1203655 -0.33287373 -0.4240656 -1.2624539 -1.7551346 -0.12623185 1.364777 -0.83239496 -0.71873444 -1.568743 -0.26308963 1.4516176 -0.4318385 1.4111122 0.1283612 1.0309831 1.0154661 -1.083142 -2.3740501 -0.38274065 -0.6188616 -1.1306123 1.9385349 1.2850803 0.816661 -0.6926233 0.92139304 -0.3781011 0.2990784 0.43793127 0.670536
1632 -1.1019007 -0.0974157 -0.52482665 -0.5452429 -1.6746637 -1.6724596 -1.1610358 0.82041144 0.41264158 -0.8918883 0.0010639004 0.40616694 -0.3595217 0.11112957 0.94967395 0.57167065 0.07034045 -0.23855162 0.4436687 -1.3946725 -1.3865876 -1.1302377 -0.2955983 -1.085395 -1.4629377 2.8429089 -0.89927197 -0.31699184 -1.2428561 -0.29243407 1.0525922 1.563737
287 -0.20190714 0.25232294 -0.2760269 -1.0538163 -1.4829359 -1.394718 -0.21862695 0.16685842 -0.8161427 -1.2396376 0.45214796 0.84313613 0.89054096 -1.93636 1.1660368 0.36626998 1.0373348 0.54495454 0.42093715 -0.43341282 -0.57352805 0.5398184 -0.91649365 -1.5055493 1.0005966 0.22762284 -1.9020169 -0.38068843 -1.4933342 -1.3396298 0.09646803 -1.0111454
274 0.39197117 -1.1837554 -0.013557716 1.0049398 -2.1281526 -0.88232094 0.67418957 0.27311248 0.2751881 -2.417067 0.7425523 -0.09280051 0.26573265 -1.4372002 -0.29672667 1.2728549 1.0198593 0.46883133 -0.048757415 -0.15168077 -0.13255994 0.43130744 -0.17693934 -0.5753268 -0.99110514 -0.08695627 -1.5138142 0.75852764 -1.6631275 0.8842136 0.7480635 -0.5508041
1325 0.117067985 -0.7011989 -0.37845644 -0.24003257 -1.208541 -1.0809567 0.09589058 1.6797372 0.8116241 -1.5723625 0.5757308 -0.18104628 1.6286986 0.41481435 -0.19100007 0.66674936 1.7441032 -0.3924422 -0.27692625 1.7628437 0.0029661835 -0.31267935 -0.7257249 0.20963213 -1.3372836 0.6974377 -2.5489109 1.031616 0.46481308 1.4591696 -0.57085115 0.14079852
1352 -0.61368954 -0.29202652 -0.813592 -1.0884585 -1.4975381 -1.612951 0.23625799 0.5134911 -0.20082529 -1.0665793 0.97382283 1.0998942 0.8286814 0.060953952 -0.22032769 0.26236665 1.4783103 1.6564021 -0.4480668 -0.3815108 -1.1437206 0.67549926 -0.12251362 0.51200545 -0.6139412 1.1631036 -0.58219296 -0.20027015 -1.016671 -2.0334272 1.4210446 -1.5669053
335 0.53372407 -0.17355345 -0.08505437 -0.2602083 -1.0429144 -1.8290745 -0.270463 0.8192041 -0.6174871 -1.8076669 0.685178 -0.75972307 1.1235199 -1.5477558 1.3513873 -0.7454976 1.1379948 0.19575237 1.0614053 -0.016295949 -0.16708224 0.32068574 -0.38164213 -0.4222329 0.65525967 1.7265177 -0.9377112 1.7527759 0.49657613 0.0970673 -0.01542031 -1.087524
989 0.7464996 -0.11419598 -0.27583873 0.056644246 -1.2531372 -1.5923705 0.10897477 1.6415722 -1.0550214 -2.854032 0.64858747 0.83401036 1.12029 0.24593158 0.23992668 1.0290216 0.68397146 -0.30083302 -0.083485976 -1.567306 0.9177754 0.8133965 -0.7646613 -0.5926103 0.68482244 -0.16844873 -0.9332045 1.4495766 -0.45464486 0.93427414 -0.14153385 1.5249953
1687 0.45369816 -1.7661452 -0.7677356 -0.79781526 -1.6654061 -2.1454237 -0.4005925 1.4031539 0.9964457 -1.8829006 -0.45983678 0.3221692 0.13538218 -1.8129233 1.1993213 -0.4765119 0.3236154 -0.6190132 1.2887512 -0.3983954 -1.5848432 -0.3347603 0.25422445 -0.52880347 0.18972073 0.3311212 -2.3021972 -0.3155316 -0.6832861 0.5512565 0.10186381 0.7593546
1730 0.11047558 -0.57976335 0.5017732 -0.6126933 -1.64553 -1.5903617 -0.6077984 0.81924284 -0.41018677 -2.1890085 -0.90992165 0.21095823 -0.8583853 -1.1546842 0.5145402 -0.9358087 0.25446025 2.1263046 0.34740198 0.25296366 -1.0530537 0.5767013 -0.9893191 0.29390436 -0.28308353 0.040015038 -0.37381387 0.933832 -1.4919809 -0.577725 0.65876806 -1.1716067
1837 0.105601676 -0.12074388 -0.85124534 -0.88325006 -1.2407144 -1.0529796 -1.8760345 0.7356319 -1.7183943 -0.109559126 -0.013579514 0.117184535 0.07611023 1.063251 0.9450794 0.7645614 2.0216012 0.98532987 0.41913456 -0.7974383 0.5224609 0.1427045 -2.5614996 1.0865486 -1.1583956 2.7214544 -0.43120992 0.030913323 -0.5949716 0.79043895 1.4641306 -0.41844863
1192 -0.5703059 0.53838617 0.5211132 0.15277438 -2.0386918 -0.5941398 -0.91318655 1.1796536 -1.842856 -2.289067 0.5733311 -0.24913768 0.7229778 0.9220428 0.25845712 -0.59371775 1.4029192 0.101357274 0.12009513 0.013510668 1.171062 -0.33134535 0.01735673 -0.4300756 -1.8575143 0.85850775 0.07900838 -0.08618831 -1.0084993 -0.7845911 2.117716 -0.8514088
1631 -0.28490955 -0.5977823 -2.0415967 -1.2721506 -1.6979736 -0.89333165 0.1515327 1.538405 -1.4200302 -2.220834 1.1580856 0.11534577 1.184069 -1.3838668 1.0399495 0.5141688 0.75196487 0.18933912 0.22844583 1.0769644 1.05643 -0.34928393 0.38448262 -0.9665694 -0.7714535 1.2340361 -0.75904584 0.17209128 0.5753654 -1.2634872 -0.4299978 -0.87956935
849 -0.35569364 -1.109146 -1.7926702 0.92894876 -1.0049314 -1.7516038 0.21459216 2.118802 -0.9091647 -1.5853505 -0.2425051 -0.499681 0.2147567 -0.5973882 1.1164458 -0.57049024 -0.34795108 -0.8940584 -1.491151 -0.2821214 0.66649586 0.39088187 -1.3499423 -0.09572915 0.16906393 0.7463083 -1.7494081 1.206244 0.7806999 -0.30907315 0.43724713 -0.02669887
1634 -0.74812406 -0.7302835 -1.2986338 -1.4850386 -0.9954075 -2.8735328 0.19586885 0.6439908 -1.3019384 -1.3968568 0.8353538 -0.49948087 2.1431835 -0.042933248 0.28075066 -0.16819526 0.13031259 0.034789447 -0.38595852 -1.0326121 -0.75379556 0.26063272 0.21921577 1.1313838 -1.36121 0.043297026 -1.3599074 0.54291224 -0.6443663 -0.9110858 -0.10350455 0.38625252
1355 -0.32923448 -0.22967042 0.82029766 -0.99636555 -1.9274179 -1.9713603 0.010736867 0.07885887 -1.3704598 -1.1791123 -0.37516546 0.6815605 1.5631571 1.1741546 -0.2472527 0.6585481 -1.0945241 1.1164334 -0.18849443 1.3587077 0.04388412 1.0807 0.26291227 -0.9698529 -0.85746473 1.190344 -2.3279161 0.87572 0.06740265 0.6914846 1.2254517 -0.011818798
1137 0.41494125 -0.5056094 0.3495207 0.35157928 -2.0889747 -0.15170966 -0.31614122 1.2998636 -1.1849405 -2.1722395 -0.98134315 0.3071341 -0.15189977 -1.157454 0.26120764 -1.1238105 -0.1328654 -0.43736783 0.9913857 -1.470281 0.8834823 0.49838567 -1.3797191 -0.7554822 -1.2454046 0.6826959 -1.5154555 0.42241046 0.06644351 -1.4156799 1.087902 -0.44219363
1700 -1.9080794 -2.0946512 -0.10901327 0.12130069 -1.0076145 -2.403867 0.17833844 0.14031358 -0.48868522 -1.3301194 -0.35355797 0.9558151 -0.024922628 0.6848899 0.18016857 0.6852932 1.6895145 -0.31764868 0.46126512 -1.5509655 0.758724 -0.37685087 -1.0047275 -0.1902011 0.33610114 1.4020071 -1.484238 0.4574188 -2.254699 0.8122463 -0.8149263 -0.18982914
1015 -0.65525806 -0.0007128014 0.5051516 0.51957107 -2.1338947 -1.922939 0.08915747 0.93486995 -0.90311825 -3.0042443 -0.20535487 -1.3461577 0.893076 -0.5713432 0.32361272 -0.8901442 0.24041459 -0.082215786 -0.50795114 0.90957737 0.19329302 0.50278276 -0.47743997 -1.023084 -1.6027459 0.7210873 -0.43599895 -1.1030288 -0.98441285 1.0212718 -0.26981378 0.45765278
391 -0.20400983 0.22831434 -0.06308803 -0.12979688 -2.2152994 -2.379569 0.30431908 1.4369876 1.003075 -0.4281204 -0.532581 0.097363144 0.9831297 -0.39674622 0.21732408 -0.14685178 1.0815079 -0.114205755 -1.5404348 0.4482165 1.1669822 2.4450562 -0.09271986 0.702806 -0.6949077 1.3035007 -1.3552893 1.5016577 -0.6739542 -0.44035998 -0.5896672 0.5107528
443 -0.4780668 -1.59057 0.88224894 -0.78764206 -1.1840749 0.022644388 1.4944656 0.7553088 -0.53682035 -0.7205059 0.158949 1.1713986 0.7265205 -0.57521874 0.31483147 0.5762538 1.9123254 -0.2608546 0.3458743 0.9529005 -0.9843764 0.077757165 -0.43528193 0.63946086 0.096364185 2.2709599 -1.6211865 0.8414068 -1.0492189 -0.6537798 -1.1956141 -0.6771042
392 1.0211217 0.47517258 0.13628638 0.036289606 -2.87217 -0.6377871 0.3822961 -0.10254182 -0.6517103 -1.3386573 -0.2579004 -0.88304824 1.2561383 -0.02933322 0.5811383 0.536119 0.40105832 -0.017409608 -1.170727 -0.2843037 -0.6494571 1.7673647 -0.2807045 -0.14196923 -0.34105018 2.5711806 -0.994983 0.16375437 -0.89170647 -1.9840709 0.496494 1.2636881
1629 -1.1717889 0.11967898 0.39141515 -0.31313178 -2.0015159 -0.37662652 -0.3935275 0.80448824 -0.9839523 -1.7574832 0.38672975 -0.36731258 -0.07805118 0.12459511 2.1707304 0.8019888 0.7103711 -0.50734144 -1.4716307 0.50400305 1.0157912 -1.9173176 0.338083 0.3848788 -0.700444 1.3204983 -2.438478 -0.61580276 -0.21158235 -0.6945691 1.1979916 0.08752937
907 0.079269774 0.40140632 0.09462365 -0.98542374 -1.6417966 -1.7596955 -0.47419566 1.2463225 -0.54807526 -0.35432923 0.43526685 1.8854654 1.2140254 0.8516582 0.27829725 -0.42423317 1.3658887 0.9550904 0.44267032 1.2724233 0.24805234 -1.0842155 -1.2905519 0.37102488 -0.38113505 1.1696577 -0.87701404 1.105544 -0.5726851 -0.55390406 0.9666893 -0.7643753
1684 0.80311275 -1.3971059 -0.39173695 0.16586126 -1.7399759 -1.11396 1.1247821 1.9315054 -1.1380665 -2.032762 -0.5601609 -0.4493042 -0.05493113 -1.1001512 -0.08934555 -0.094953395 1.003738 0.5398552 -0.9188157 -0.907614 -0.24835694 -0.2614077 0.31230566 -0.43266797 -0.65234894 -0.8173656 -3.1511538 -0.8135533 -0.39780816 0.32618156 -0.01647398 1.7411664
380 0.76843095 -0.25191933 -0.734448 -0.23163033 -1.4081119 -0.18816653 -0.9406322 2.7176354 -0.6684616 -0.616201 -0.45845732 0.56682247 -0.32663184 0.7274891 2.7326062 0.3367986 0.22821791 -0.39125267 0.4335388 1.3280658 0.11379872 0.3850664 -0.70088005 0.57286406 0.037302937 1.3673084 -1.0344144 1.6708637 0.19020833 -0.75716025 1.2460009 -0.017259294
1273 0.66194427 -0.37296504 1.053682 -0.89219725 -1.298467 -2.0069463 -0.9751958 0.2616097 -1.3772365 -0.38545123 -0.002172005 0.7085308 0.30592412 -0.01338987 -0.2519306 0.7507539 -0.61024296 -0.73940164 0.19866624 -1.2126611 -0.38132644 1.4844091 -0.7892502 -0.52904063 -0.36190256 2.8188834 -0.08107735 0.8615542 -3.012616 0.16388406 1.2031419 0.0154652
1112 -0.1599236 -0.6628995 0.85856175 -0.11298349 -0.7068147 -0.90829104 0.5394439 0.872098 -1.1447908 -1.4048299 -1.2444528 -0.20283008 -0.43797538 -0.35546845 -0.60349846 1.291015 0.17095439 0.5222628 -1.0409204 -0.32870233 0.3348028 -0.62741303 -0.018569125 -0.881324 0.23119968 1.2413552 -0.4129998 0.36084715 -0.37198165 0.018421099 -0.38088128 -0.58887804
486 -1.3491045 1.2088944 0.6880833 -0.4390809 -0.85036904 -0.5263754 0.41703805 1.198141 -1.3948328 -1.6103438 -0.47238663 -1.8777624 0.57188874 0.5129066 0.47715273 0.39703357 2.0022473 -1.7447238 -0.4059454 -1.4924575 -1.6384941 0.19095324 -1.0361562 -1.4625683 -1.0675806 0.9757425 -1.182323 0.69701 -0.02675319 0.5325813 0.5287485 1.0324854
1126 -0.5744513 -1.0494012 0.17455746 -0.8048153 -1.8286291 -0.8549899 -1.225671 0.060755398 -0.1814217 -1.9944248 -0.95926815 0.8899343 0.909025 -1.030595 0.52895725 2.1766944 -0.18391159 -0.029318575 0.033108514 -0.6425326 -0.95955837 1.3211997 -1.4453307 -0.8380794 1.334411 1.5731369 -1.4663423 0.43200478 0.032545917 1.5881091 -0.23619269 -1.5925726
1779 -0.033569876 -1.4527154 -0.41330814 -0.8574261 -1.7288508 -1.6756412 0.10879822 1.7032202 -0.33952603 -1.9370226 0.8854434 0.5134312 -0.3654511 -1.4857352 -0.21418777 1.7239281 0.65609646 -1.791871 -0.14636514 -0.50182 0.19678494 0.7449023 0.8088754 0.8865619 0.22670592 1.0386043 -0.3194906 1.2981 -0.6616241 0.5646897 0.84691095 -0.5482527
1497 1.1248642 0.4706505 -0.51427597 -0.19026251 -1.14528 -1.705439 -1.4830382 0.8338541 -0.70039034 -1.2586713 -0.8762171 0.23810878 0.9806935 -2.2986033 0.5827579 0.592324 0.74393606 0.12073867 0.8874686 0.5565123 -0.3752624 0.36287642 -0.7328096 0.4820177 1.0091845 1.2116846 -1.3985578 -0.56072253 -1.2464541 1.0090436 1.7076521 -0.5835498
887 -1.1515136 -0.032301266 -0.78707033 0.46696195 -1.0199424 0.55732733 1.0338618 0.86540306 -1.0925133 -1.8212152 0.40853342 0.194937 0.8873628 -0.721675 1.0043856 1.9443917 0.6834139 -0.74541146 -0.8788322 -0.5785286 -1.1149647 1.342367 0.099782646 -0.35165685 0.40394112 -0.20589532 -3.2306445 1.005269 -0.8124193 -1.1042073 0.7477612 0.25086823
1520 0.30313158 -0.32546735 -0.16298012 0.5408862 -3.376527 -0.3751388 -0.41760513 1.9815228 -2.0867739 -0.96621954 -0.27595377 0.26587382 1.6359926 -0.14824279 -0.10821296 0.39939615 -1.415236 0.5563735 -0.015231316 0.66966635 -1.1685989 -0.7172658 -1.100998 -0.19436488 -0.7721437 -0.1739167 -0.4995563 0.066765755 -1.9665071 -0.58862936 1.6680082 0.7147602
1113 -0.5660863 -0.8031581 0.8819829 -0.016734058 -0.54385436 -1.0001302 0.4691075 0.6902758 -1.0365108 -1.1149346 -1.4304146 -0.10310077 -0.5577485 -0.48667374 -0.46059278 1.3970691 0.27019086 0.38554054 -1.1310995 -0.23870604 0.09617306 -0.76246935 -0.49463055 -0.64776343 0.50975037 1.2743064 -0.76899076 0.39819303 -0.3179262 -0.05596855 -0.25963214 -0.56618744
1306 0.06582283 0.8571187 -0.40635854 -0.465648 -0.69639504 -1.4273684 -0.24852386 1.5762908 -1.2500795 -0.8655393 0.9775413 -0.010160852 0.9822295 -1.4422601 1.2238479 1.2063588 0.5563752 -0.32542557 -0.19586821 0.45672172 -0.0022404594 0.7787168 -0.8417384 -1.0327669 -0.51389706 1.2408874 -0.6833956 -0.67041594 -3.4828873 -0.19018224 0.1427187 1.8922497
1633 -1.5319986 -0.52500784 -0.8219964 0.17102584 -1.6331773 -0.32890314 -0.6192422 1.0071698 -0.2308622 0.34304205 -2.271047 0.070847124 1.204704 -0.611313 0.49507472 0.5292938 0.15667425 0.1438101 1.1546385 -0.9187595 -1.4174767 1.169272 -0.43362245 -0.7071435 -0.6800156 2.075427 -1.8864329 0.94321275 -1.1495357 0.10116336 0.09948989 -0.85291284
1578 1.0116345 -1.4207888 0.9279703 -0.76988196 -1.4744736 -2.509608 -0.86917835 0.35780635 -1.1450373 -0.80675906 0.29302984 0.20982987 -0.18702984 -1.5578322 1.6770712 0.5342302 0.39021087 1.2296836 -0.15769298 1.0002477 -0.9624569 0.3185287 0.50627697 1.4976135 0.16986719 1.5500778 -0.69572747 0.5175459 -1.404623 0.30364648 1.2004786 1.3165795
133 -1.2601156 0.100897804 -1.7509872 0.14302126 -1.725684 -1.2953278 -0.539127 1.6347609 -1.4547335 -1.8404866 0.10275883 -0.046674788 -0.975077 -0.73835754 -0.009749332 -0.61195946 1.0151795 -1.0613831 -0.19847353 -0.38593265 1.138287 0.12561178 -0.120063506 0.1059781 1.9125662 0.28729695 -2.0086462 0.22342256 -1.4561843 0.95198715 1.2336566 -1.6399662
688 0.08726568 -1.2368332 -2.0497065 -0.0037129682 -0.75405985 -0.8919006 0.63509196 0.68634635 -1.35198 -2.0679543 -1.4385412 -1.1671424 1.7002096 -0.30810195 -0.24554257 -0.481877 0.5074968 -0.4838264 -0.12160067 0.8903294 -0.54744637 0.34518397 -0.85906124 -0.33746 0.043427315 2.7892873 0.012480282 0.45529392 -1.1656806 0.75164324 1.009791 0.5909695
186 0.6759031 -0.18027958 1.065215 -1.5697852 -1.0152934 -2.1209855 0.17143598 1.6302724 -1.5329007 -1.5673696 1.1395953 0.7591573 -0.3895098 -0.647856 0.14888021 -1.367714 0.3601796 -0.40038684 -0.870978 0.07963633 -0.50063545 0.2297469 -1.3320894 -0.069492854 -0.8051785 0.55759877 -0.6729958 -0.43738422 -0.65193313 1.183806 1.3962548 -0.43348622
1554 -1.4621685 0.16734171 0.36916748 -0.7279009 -0.9284211 0.8519655 -0.18101014 1.4260749 0.097301036 -1.5654789 -1.4284973 0.35162997 -0.94348365 0.33060148 0.958702 0.4641595 2.7687426 0.276133 -0.14484984 0.6225222 0.7822688 1.158771 -0.1361692 -0.059188157 -1.9010425 1.6300308 -1.5084811 0.7654176 -0.74541634 -0.07952739 0.0025389995 -1.5528815
278 -0.796967 -0.50319433 -0.6109234 -0.22215241 -0.7312713 -0.94194293 -0.25967392 1.8778781 -0.33351484 -1.7301451 0.40432993 -1.0796045 0.41531348 -0.3664317 -0.4592128 -0.28898108 0.8540685 1.600593 -0.9982767 -1.2983843 -1.7553755 0.4693595 0.56735605 -0.7976801 -0.061651044 1.9569143 -1.5091653 1.182935 0.38906932 -0.052398402 0.34430674 -0.43845028
854 -0.9533849 0.36149228 -0.21660103 -0.3556769 -0.53352535 -2.7810278 0.102246456 1.6078972 -1.4122319 0.15116501 -1.0875188 -1.327043 0.7963419 -0.71646446 -0.16077898 0.1383236 1.9941566 -0.14445129 -0.6813106 1.1447759 -0.36974058 1.1657603 -0.688007 0.16809379 -0.7327182 1.2784331 -0.08332238 0.39052334 -1.3468543 -0.7188686 1.4762186 0.20652029
1577 0.23725691 -0.17594999 -1.9881991 -0.94236135 -1.4215819 -0.5017224 -0.25771588 0.4887185 0.8333594 -1.6927366 -0.65633166 -1.3594211 1.0887873 0.19480838 0.36546582 -0.5839044 1.6563369 0.76667655 -1.126036 0.64066905 -0.9609714 1.1799831 0.28213152 -0.7705872 -0.14913799 0.583125 -2.2935045 1.559441 -0.7254372 0.22896183 1.4610137 -0.59781003
339 -0.9228814 -1.271071 -0.76086307 -1.2486738 0.018403858 -2.5936244 -1.488686 0.81725496 -0.7197472 -0.34910834 -0.64248085 0.026179058 0.8783098 -0.7407794 1.1086015 0.007827482 1.3336424 1.3419663 0.69880563 0.07180958 -0.64246505 -0.051287454 0.2703357 -0.14814816 -0.32890487 2.1871219 -0.34893236 0.8803094 -0.8376491 -0.14328752 0.8622863 -0.7337555
329 -1.9611942 -0.07112315 0.18284383 -0.04765809 -1.8265377 -0.5773041 -0.97454756 0.840234 -0.20023698 -1.3575821 -0.27567932 0.4180168 0.50811785 -0.18119605 0.6125051 0.59211695 -0.5902169 0.37923738 0.91202086 0.9211623 0.26717636 -0.37413824 -1.7525388 -0.09566205 -0.21237357 0.39237672 -2.7984965 1.3567231 -0.4476831 -0.44691783 0.5629146 1.2377328
1090 0.5055339 -0.86321414 0.23668048 -0.013691833 -1.7089789 -0.14476866 0.47306818 1.54267 -1.0708132 -0.13797227 -1.2263029 0.5272098 0.59659564 0.83239394 0.30460078 0.18859357 1.6431863 1.388034 -1.4469761 0.08451172 -0.07239855 0.55315953 -0.65416557 -1.358309 0.39275935 0.250217 -1.8008983 1.696414 -0.054972634 0.68951046 2.1598372 -1.9685457
1835 -1.6761217 -0.0795396 -0.11941788 0.2406298 -0.45160377 -0.6026965 0.38501516 1.9221319 -1.102451 -0.8582841 0.60434103 -0.017146312 -0.43430337 -2.6042929 -0.017319173 0.052378967 0.33428666 -1.0128043 -0.07526162 -0.47339445 -0.23549052 0.33845943 -1.0937572 -0.23559633 -0.9498527 0.7204938 -1.0771121 1.6484014 -1.9284067 1.1533526 1.2663636 -0.2841779
430 0.6432703 -0.19223227 -0.32415706 -1.5315672 -3.0720868 -1.1691302 -0.33310315 0.7081562 -0.29206502 -0.4733658 -0.19345726 0.18420309 1.4664515 -0.12778346 0.9373037 0.73539853 0.7263368 0.24125518 0.22132352 1.3422314 -0.2479943 0.8267401 0.34383586 -1.538745 -0.11773389 1.0274655 -0.060364205 1.2013882 -1.5701715 1.6378324 0.45107225 1.1742418
1594 -0.46889067 -0.0020995073 0.7318881 -0.54218155 -1.400677 -0.18220107 1.5076311 1.090799 0.25834334 -1.2861305 0.6426627 0.8019328 0.4107006 -0.9112695 -0.15307723 1.3655672 1.321755 1.0136247 -0.9066184 -1.1969411 0.62422395 0.5618256 -1.2744421 0.50450057 -1.7549479 0.93018484 -1.507977 1.9072965 -1.7441342 0.20791864 -1.0155222 -0.55292666
1425 0.7414623 -1.4062675 -0.6281909 -0.71661043 -2.3424492 -1.8043072 -1.2013198 1.4914393 -0.13643898 -1.9031913 -0.14909354 0.44198766 -0.68331754 1.3307314 0.7951158 0.9243278 -0.27225572 0.3644321 -1.6743993 -0.38950294 -1.0488138 0.31261343 -1.9182396 0.04908313 -0.03293552 -1.2408348 -1.6994941 1.150902 -0.24611907 0.08392542 1.0492882 -0.09276579
587 -0.9653597 0.34482569 -0.08560147 -0.74386734 -2.0040908 -1.5758985 0.41724712 0.94484067 -1.5989094 -1.844098 -0.9599471 0.36353865 -0.07753384 1.0104957 2.0383732 1.1628243 0.64718926 0.6565352 0.13260438 0.50195587 -1.0869043 1.321116 -0.71840173 0.21308328 -0.5604025 -1.4496121 -0.71046007 0.6891119 -0.87481666 1.4151013 0.17962699 -0.44234437
1066 -0.5740641 -0.47924915 1.5076314 -0.68536097 -1.6625946 0.27156743 -0.78913766 0.7610311 -1.9041425 -2.1102576 0.6420396 0.66889465 -1.0222508 -0.38518283 0.050326675 0.4042186 -0.3517579 0.71168387 0.023500375 -0.95696455 0.22707053 -0.21324748 -0.7011188 -0.50949115 -0.75478566 -0.15361233 -1.9736755 0.3422731 -2.0557761 -0.04461644 2.394573 -0.08765451
1606 -1.7353138 0.12514511 0.87419194 0.31074935 -1.4891626 0.64989334 -0.14996351 0.72419935 -0.85683656 -2.5180461 -1.0284443 0.50448895 0.66657317 -2.2672062 -0.47340798 -0.18514934 1.3898531 0.969676 -0.25052062 0.115246676 -1.3999915 0.39072052 -0.7094598 -0.91493607 -1.7040633 0.60726386 -1.4190931 -0.26876947 -1.373455 0.9173197 0.34194797 -0.22928497
1667 -1.0923588 0.69655794 -1.6896385 -0.5459081 -1.5072075 -0.87308955 0.13927792 0.8672746 0.48398682 -0.585952 -0.3728994 -0.069240704 0.26957306 -1.2590373 0.31401923 -0.26339436 0.5247359 -1.0436053 -1.1835529 -1.4546795 -0.8104196 0.54289615 -0.7179921 0.14723141 -0.5364073 1.6910279 -0.5199533 1.7131021 -1.9686023 -0.8534604 1.311707 -1.6008112
324 0.37462005 -0.44046682 -0.68535393 -0.5531422 -1.1704644 0.065917395 -0.65424615 1.6045555 -1.5106007 -0.44878042 -1.2257555 -0.47478896 1.2421781 -1.344876 0.09378433 0.78378886 0.49562225 -0.30591697 -1.2684546 0.8340292 -1.2277904 0.77210593 -0.37187266 0.40543598 -1.4079173 1.3531164 -2.5556564 0.26167166 -0.55353284 -0.658872 -1.1795368 -0.8443168
868 -0.7815255 -0.7563779 0.71762884 -1.3354301 -1.1874087 -1.2027564 0.74124753 1.6189849 -2.4000473 0.23975842 -0.6872033 0.006311549 1.3727897 -1.6601479 -0.054585423 -0.5543877 1.4215659 -0.7272397 0.16363296 -0.19885658 1.2828475 0.95348805 1.3365979 0.7202135 0.0062585375 1.7326304 -1.0252662 1.8042865 -1.6840315 -0.14372222 -0.07817272 -0.45447373
444 -0.84068555 -1.9284478 -0.7686168 -1.000149 -0.94056267 0.4179261 0.51791424 1.2477503 -2.1200306 -0.71206045 0.16884057 -0.3820952 2.0112584 -0.52493507 -0.7323444 1.0491239 1.9700906 0.056813557 0.7118607 -0.093745336 -1.3902532 -0.38788006 -0.36893094 -0.93838364 0.0933476 0.99521935 -1.9312944 0.63339543 -0.60538876 0.83984387 -0.3769035 -0.082773834
355 -0.9857375 -0.23974542 0.97197944 0.21147297 -1.3755829 -1.5829041 -1.3917186 1.06399 -1.8502903 -1.6469913 0.39704707 -0.8746634 1.3533703 -0.074342854 1.4291579 0.36600778 0.18018275 -1.5916338 0.65672636 -0.67941165 0.04693085 -0.73405355 0.36886957 0.25213784 -0.8603849 0.07010838 -1.2004168 0.55768436 -1.960706 0.44204962 0.7287976 0.48415458
1681 -0.72657365 -1.5954281 -0.115461275 -1.0949169 -0.76384646 -1.8703859 2.4517407 1.6776255 -0.21849376 -1.6474813 1.0969126 0.5973782 0.016994992 -1.2168437 -0.61561036 -0.35020486 0.89547634 -0.648245 0.22064951 -1.470133 -1.058619 0.42640132 -0.9079828 0.07881775 -0.61031544 -0.09342885 -2.040681 -0.5671346 -1.7185501 -0.10986918 0.44227132 -1.0317712
217 0.56339955 -0.57113785 -0.38275042 -0.20399219 -1.5340472 -1.9869128 -0.30496314 -0.21138695 -0.019181345 -2.5780864 0.57691675 0.021939727 0.25619295 -0.2674551 0.050027337 -1.4381948 0.12138727 1.2015117 -1.5307282 -1.1344897 -0.7481982 0.35557428 0.09494677 -0.6902387 -0.3998451 0.9485326 -1.4651154 0.31331983 -1.8611051 0.49286994 1.8917489 0.42432702
456 0.73843324 -0.6580095 -0.22911872 -0.030330276 -1.7356855 -0.28227285 0.37518063 1.4378756 -0.25747892 -1.2027249 -0.16078615 0.72858936 0.8185031 0.23055169 0.7685531 1.8265952 1.068053 -0.96277124 1.6083599 0.21687447 -0.45836443 1.4047763 -0.082742415 0.38300183 -0.17350024 0.5590164 -1.3789264 1.144374 -1.9580842 2.46716 0.7225151 0.2581717
1630 -0.35945463 -0.42726788 -0.7398124 -0.94312745 -1.2875735 0.31705856 1.7003748 1.82688 -1.2353767 -1.7478498 0.8859629 -0.14452313 1.0626507 0.21491376 0.8418856 0.017898684 -0.07178808 0.6960298 -1.0563405 0.18185095 1.9749026 0.8587573 0.51302266 -1.5019406 -1.3515234 1.2279735 -1.3817589 0.75719553 -1.2913771 -0.46325225 2.5184326 0.15179667
1453 0.50664306 0.024232214 -1.0821638 -0.30594832 -1.4523022 0.5898326 -0.07983993 0.8981305 -1.3184321 -2.1462753 0.6994228 -1.5881128 0.48483887 -1.0548373 -0.6914348 0.99489677 0.7463054 -2.2830758 0.961594 -0.8683991 -0.22449258 0.24943434 -0.54701805 0.38593727 0.3310722 2.0543354 -1.7723755 0.85552686 -1.8590568 -0.5150477 0.5927836 0.39029482
1581 -0.8454729 -2.1658533 0.096716985 0.13249819 -0.17219968 0.0067014587 0.30662134 1.2033297 -0.8099287 -2.7901442 -0.5828552 0.25357708 -0.14781177 -0.862583 1.2144169 -0.62118524 2.18109 -0.15897162 -0.55217844 -0.6277852 0.50032526 -0.39600253 -1.4778519 -0.45704985 -2.5869398 -0.4048536 -1.7727854 -0.0057971096 -1.2474604 0.28449976 1.1168125 -0.7351136
351 0.5942909 0.050435312 0.54644144 -0.043904234 -0.47750047 -2.3780081 2.43143 1.8399775 -1.0000908 -2.3172963 0.47802687 0.57764816 -1.286039 -0.6582453 0.49777168 0.63539124 0.56128913 -0.2427983 -0.7792398 -0.49266958 0.27661183 1.0801302 -1.7760168 -0.6632857 0.42369267 0.8724009 -1.3959516 0.39007497 -0.3487863 0.6087889 0.75055075 0.052018594
1595 -0.14152195 -0.19172652 1.3230453 -0.52606326 -3.269452 -0.52114135 -0.7649359 0.58023137 -0.49091044 -1.2484239 0.06347369 0.13041823 0.24692509 -0.32996964 -0.9952309 1.0840046 0.24460202 1.4535778 0.42354816 -0.09525659 -0.27109966 0.14534387 -0.29470947 -0.23195471 -1.7763658 1.2949433 -1.0632479 2.1564689 -0.80837154 0.5626174 -0.912891 0.42133895
977 -1.1468139 0.25533426 -0.35843524 -0.04839324 -2.0442045 -1.6405737 -0.91945297 0.3471348 -0.8610313 -2.2223737 0.9871673 1.3576108 0.98534036 -0.22485153 0.43842715 -0.69908065 2.0519533 -0.33677334 -0.49088025 -0.7730871 -0.017350826 -0.9000336 -0.92413306 -1.4713207 -1.438247 -0.06968862 -0.7689892 1.5541124 -0.33647582 0.00795405 -0.8385859 -0.83155817
1054 -0.067401 -0.023775497 -0.96006167 -0.21411115 -0.52744234 -2.2523565 -0.27952984 2.7320435 0.47869843 -1.8817868 -0.07134834 0.23534653 -0.79331356 -1.1381595 1.1665757 0.854453 1.0665519 0.31688648 -0.5298003 -0.7351897 1.1816576 0.26960027 -0.61967534 -1.2313741 0.79665893 1.5273237 0.23047037 1.6524436 -0.1982237 -0.18641216 2.3066735 -0.53022915
1600 -0.26370284 -1.4673846 -0.61749536 -2.3520696 -1.4987445 -1.2968824 1.1998554 1.8140565 -0.45808893 -0.4814594 -0.1460323 0.14458162 -0.7563102 0.5799562 1.4726247 0.75673366 1.0511457 -0.4290967 -0.865377 1.4156313 0.29369456 -0.6722938 0.27165177 -0.7883307 0.27820244 1.5474548 -1.5678735 0.32256192 -0.19414671 0.95382655 0.63625646 0.7815021
536 -1.0241529 1.3298507 1.2572074 -0.31726912 -1.8100549 -0.64969367 -1.3289092 1.5672476 -1.4948336 0.1580181 0.29315898 -0.048188902 0.9171709 -0.9893389 0.18469588 -0.255306 -0.42218414 0.56060386 0.5391118 0.5008239 -0.4288045 -1.3082741 -0.5534251 -1.1706603 0.23426789 2.72722 -1.2769396 1.4345337 -0.9777476 0.14165463 1.0744908 -0.61980927
1114 -0.7396535 -0.74254924 -0.20528854 0.23102127 -0.9250379 -1.214589 0.34097666 0.27682182 -0.52921873 -1.443839 -1.5693002 -0.27028543 -0.20175734 -0.4050212 0.18970199 1.3618015 0.6549958 -0.2572644 -1.2030349 -0.4167374 -0.022963904 -0.40214473 -0.22382475 -0.39632952 0.446199 1.105956 -0.63914466 -0.18341821 -0.33670595 -0.602124 -0.37022755 -1.3718807
1071 -0.54592705 -0.41751188 1.9643083 -1.2432162 -1.4681195 -0.19078565 0.9214884 1.342549 -0.067459986 -0.7445729 -1.9524065 0.7557617 1.5005891 0.96700025 1.5445707 0.55968595 -0.41094905 -0.42605126 0.19654837 -0.14970219 0.26162747 0.4981539 -0.7964875 0.5617055 0.11260273 1.1237007 -2.4127593 0.04276409 -1.5767685 -0.14134513 2.1345313 -1.7300761
695 1.7480321 -0.15319496 0.6437315 -1.9720558 -0.5333196 -0.7073905 0.8287567 1.4442246 -0.2608255 -1.287167 -1.2130489 0.3560706 1.94916 0.19905405 1.1736431 -1.2652271 1.7617087 -0.56735426 0.07662596 0.09295423 -0.37605318 0.34984538 0.44594273 1.0248864 -0.8538608 3.2431588 -1.6522895 0.22856084 -0.08971238 0.75452495 0.8969157 0.52480835
1536 -0.6221878 0.20303889 0.8464881 -1.0684836 -1.8907989 -1.4409392 -0.21599333 0.8786823 -1.992244 -1.0818645 -1.9772943 0.1661051 0.6345894 -1.3613583 0.3540852 -0.643065 0.5032712 0.97343975 -0.5095274 0.02738404 -1.210113 1.3965212 -0.044546444 0.5303081 -1.23026 0.09397116 -1.7075666 0.6711889 1.4088722 -1.8038479 1.3098525 0.33366883
65 0.028046254 -0.5798154 0.7286988 -0.23670018 -1.1608286 -1.9561228 0.9467376 0.12700996 -1.1291685 -0.5686463 -0.58260715 0.52217615 1.6103536 -1.860598 0.43644598 1.0190233 2.3048978 -0.6248225 0.6113487 -0.81563187 -0.31368294 1.2722318 -0.7318298 -0.90697527 -1.0736643 -0.4987078 -1.2695786 0.59153706 -0.9385276 0.35770303 1.9942572 -2.0952275
1102 1.7111306 0.23924375 0.68687093 -1.1412339 -1.2221255 0.21805717 -0.79773754 1.0263098 -0.47002158 -3.063806 -1.6308684 0.20503366 1.4407812 -0.57971734 -0.88755137 -0.13598152 0.4399113 -0.1551079 0.26352108 -0.6275312 -0.9392119 1.218316 0.117005005 0.45683458 0.41170713 0.7457031 -1.9474688 0.32779717 -0.7487084 0.071557194 1.5298128 0.12763727
353 -1.3063514 0.051681332 0.21663557 -0.44389793 -1.1624982 -0.5909067 1.6666459 1.3871235 -2.132304 -2.402127 0.23874247 -1.6817951 -0.54942065 -0.5529701 1.0881277 0.9556146 0.55514467 -0.70696044 -0.39093468 -0.181841 1.0584995 1.106077 -0.51287717 -1.0732036 0.40945232 0.8326549 -1.0501517 1.078735 -0.3345046 0.32913777 1.2349402 0.6888284
628 -0.05577776 0.24917229 -1.4711516 0.165813 -0.5925403 -2.1463597 0.24198887 0.30535513 -1.1862886 -0.6745947 -0.52049434 0.6629731 0.044481352 -2.2262812 -0.5400462 -1.2578958 1.1172668 1.0489205 0.7912451 -1.0339571 -1.3036802 -0.29039133 -1.5570397 -0.66641814 -0.33886898 1.2702844 -1.5297916 1.2163692 -0.78845996 -0.2729125 1.5688705 -0.62455016
552 0.028059224 0.7393131 1.2512497 0.447744 -1.7652525 -0.86341184 0.14011133 2.2631807 -1.5255877 -0.44604376 0.69457656 0.40729764 0.32982147 1.4325826 0.7910409 0.9844525 1.363085 -0.7624291 -1.9174668 -0.5873308 -0.32502964 -0.90122855 -1.2828008 -0.36233023 1.0688871 1.5726842 -0.28744224 1.2195632 -1.6306636 -0.9058362 1.4596708 0.17132604
1605 0.06088893 1.306046 -0.87255234 -1.2382655 -1.1224015 -1.5689448 -0.30921677 1.7291497 -1.0566114 -1.3454843 -1.363489 1.7909133 0.16125706 -0.49350274 1.0310359 0.43390527 0.38201377 -0.7587342 -2.223137 0.7660381 1.8664494 0.27332395 -0.8186012 -0.38770816 -1.4005018 1.2467642 -0.7985566 0.44551784 -0.11535964 0.9010991 0.60655963 -0.46221834
453 0.1481984 -0.7819458 0.23381566 -1.1567419 -3.0485935 -0.53876555 0.15056995 1.8121533 -0.21996568 -2.4436598 -0.4154622 2.117616 0.7926804 1.422882 0.2232276 0.9868876 0.628542 0.34649563 1.3015833 -0.07468576 -0.38108206 -0.54040486 -0.11198156 -0.30981854 0.22068971 0.2595506 -0.06989179 -0.12259361 -1.6753285 0.27964616 0.66932404 0.9327784
98 -1.149036 -0.35885984 -0.7932354 -0.705888 -0.81150246 -1.0452542 -1.2680818 1.0659761 -1.9015219 0.626884 -1.3102481 0.09562328 -0.130008 -0.7328681 0.9843753 -0.13231537 3.2509139 0.34452954 0.11965312 0.029603492 -0.667233 -1.0522585 -1.1756215 -1.1851709 -0.41813824 0.1674475 -2.2179778 0.81916845 -0.31762198 0.12275639 0.5152656 -0.6193853
912 -0.19460846 -0.6078719 -0.83115655 -0.2373627 -2.0514364 -1.2680022 -0.15790918 1.762054 -0.668119 -0.09765702 0.6212952 0.023891646 1.2413782 1.1499002 0.5467342 1.4288203 0.7193899 0.76300335 0.031229572 0.4429501 1.0053481 1.3905298 -1.8486674 -0.089179866 -2.9644997 0.4965773 -0.914318 1.3512444 0.10299423 1.0513711 0.47427306 -1.3512726
803 -0.66121817 1.0603677 -0.3747362 -1.1799228 -0.49204025 -2.344975 0.23424509 1.5642751 0.5610615 -2.286128 1.1446551 0.7686438 0.38527462 -0.27381846 1.0060871 1.3533672 1.9066031 -0.28709966 0.42059562 -1.1774528 -0.32577533 1.0642124 -0.2247805 -1.8823915 -1.3099256 1.492418 -0.48124754 -0.59777665 -0.780396 1.6459051 0.64059055 -0.49936804
1336 -0.1515775 -1.024732 -0.9895863 1.0541346 -0.5047739 -0.96807843 -0.899131 2.7911727 -1.085167 -1.5405207 -1.0112754 0.9511051 0.70165676 0.5345648 1.8032835 0.48936766 1.1424263 0.8543815 -0.6315971 -1.2666409 -2.3349664 -0.40439078 -0.83838904 0.51359123 -0.9471716 0.5905746 -0.59463507 2.2709525 0.16082172 -0.5377155 0.5931615 -1.0488348
490 0.7370513 1.5389591 -0.8419453 0.40459278 -1.0247866 -1.8109297 -0.8030408 2.251412 -0.98199505 -0.73977304 0.122056134 -0.42356223 0.17004961 0.8858708 0.4396698 -0.40517646 2.5741558 -0.579617 -1.4618648 -0.3709303 -0.87327605 -0.6368835 -1.0646 0.3678576 -1.2363812 0.2368829 -0.81044936 0.81915253 -1.9462581 1.8161024 0.89380336 -0.5062238
1777 0.5303038 -0.9072168 -0.8301496 -0.27783617 -2.3113778 -2.3630755 -0.081836276 0.08563683 -0.46784174 -0.5014193 -0.009425003 0.11627079 -0.36911228 1.1625375 0.87964725 1.3983071 1.8952332 0.2465813 0.25898206 1.7625239 -1.0151532 -0.08688089 0.039239906 -0.5356296 0.12873109 1.3556828 -1.0827105 -0.56431293 -1.6162522 0.95886874 1.7461139 -0.88705075
102 -1.4359164 -0.05781504 -0.5630879 -1.0628495 -1.5743864 -1.2227447 0.47742265 -0.22812203 -0.015783705 -1.0210305 0.69273734 -1.3026984 0.69079053 -1.4800605 1.5396858 1.2273647 3.3028114 -0.13971552 -0.11666507 0.47735503 0.3330779 -1.0151721 -0.33458605 -1.1641791 -0.17522956 0.21974735 -1.8658382 0.37880462 -1.6772329 0.12981448 0.45941108 -0.60312
259 -0.09499206 -0.6725522 -1.8160677 -0.28207347 -0.70170754 -1.3937787 0.28652924 0.64047277 -1.071556 -0.776913 -0.39738527 0.42181486 0.7456916 -0.32298854 1.5819825 0.39829043 2.1040206 0.50672567 -0.38320252 -0.42809662 -0.320119 -0.58636796 1.0923094 -1.0589283 0.32452434 2.466457 -2.0151932 1.1896737 0.6513902 2.1267166 0.62076724 -0.40448725
1263 -0.11040676 -0.545846 -0.36908656 -0.19155389 0.029359657 -0.74537295 0.122730576 0.67717046 -0.9376573 -1.8435078 -1.4953433 1.6619961 1.0177598 -0.9843494 1.7725396 0.3738 0.17503594 -0.10616339 -0.30488864 -1.1969379 -0.2848747 1.0351061 0.25700238 1.5584121 -3.112772 1.1623585 -1.6206396 1.0373931 -2.209131 0.0068471837 0.050041676 -0.9565785
1742 -1.0138417 -0.6732959 -1.538141 1.6108587 -1.2403225 -1.5912367 -0.7199436 1.3661921 -0.6064026 -3.0298126 0.382913 0.32528645 0.6892988 -1.8820539 -0.09078582 0.072127216 0.5706757 0.9422236 0.11274884 -0.71546537 -0.1951799 -0.56742215 -0.89413136 -0.16638911 -0.18674289 0.39932525 -1.0370692 -0.12524101 -1.2893217 -1.1588016 0.5802036 0.8331104
1271 0.6158078 -0.7746433 -0.50466466 -2.3451273 -1.5773326 -2.7637157 0.3711482 -0.11047461 -1.8038987 -0.49955273 0.02841858 1.3631997 0.9122016 -0.21586657 1.4490107 -0.87780446 0.25158572 -0.061959364 -0.7215441 0.13077697 0.67519 1.0850419 -1.5070192 -0.45869482 0.2611767 0.16808064 -0.6775837 0.46112123 -2.0289314 -0.91351557 0.72002465 0.91880727
1010 -1.2755333 0.001013112 -0.5477564 -0.62826467 -0.354819 -1.757228 0.00503528 -0.025555037 -0.62392396 -2.7467217 -1.767519 -0.9233741 1.1582369 -0.36743623 0.705135 0.1442754 -0.9734792 0.22195396 -0.61933255 -1.3472128 -1.6344945 1.3382318 -1.7782453 -0.1316452 -1.111699 1.0230643 -1.1034342 1.2908386 -0.62911063 0.5724328 0.09668999 0.93493974
1335 0.9041113 -1.0281211 -1.0208946 -1.1187079 0.13502641 -1.772259 0.06511677 2.2383265 -1.1241648 -3.208373 -1.4374219 0.6755277 0.4445085 0.50193864 0.31393856 -0.61301947 0.8467903 -0.083911024 0.17161788 -1.1213053 -1.6286889 0.36689252 0.025391906 0.38949853 -0.63598675 -0.45781514 -1.5444252 1.3651978 -0.70875233 2.276155 1.0815262 -0.44842666
1763 0.15391104 0.35270774 0.84777546 0.43400294 -1.8249232 -1.8838108 -0.3622482 0.93273395 0.42510828 -1.4188137 1.2146705 1.6933095 1.1589227 -0.7861175 0.7480407 1.4483395 0.484989 -1.8320106 0.010319408 -0.07485779 0.44516593 0.8724409 -1.7132099 0.6674963 -0.2552765 1.516907 -0.73292905 -0.7231636 -0.91920775 0.36867648 1.1866219 -1.1082878
1105 -0.75184757 0.16077013 1.0357879 -0.6013478 -0.059786726 -0.14299001 -0.582218 1.2253461 -0.120167024 -1.2185382 -0.42304888 0.9444543 1.2957393 -1.6534834 -1.0142757 0.7567879 0.47734076 1.5444767 0.23261514 0.6899457 -1.2111987 -0.5053297 0.363942 0.074586384 -0.69896615 1.3491478 -2.7303457 1.0798742 -1.8335257 -1.2983723 1.6732038 0.2552538
1300 -0.70792615 -0.0064945007 0.35987467 -1.3372985 -1.2702657 -0.7955186 1.0490867 1.5627444 -0.37568104 -2.7025483 0.52490216 1.308087 1.047437 -0.1538677 1.0721816 2.5489104 0.36142996 -0.17839043 -0.23308542 0.26192427 1.3330793 1.2178661 0.4914766 -0.17376111 0.016661935 -0.16407537 -1.4705976 -0.34615776 -1.8655497 -0.019715521 0.06841838 -0.77652174
1762 -0.30214444 1.0130371 -1.120058 0.16413516 -0.59062594 -1.8261983 -0.5250393 2.3543155 0.13894595 -1.5378805 -0.32645157 -0.43030396 0.43686244 -1.0505631 0.04738677 0.27646965 0.14362644 0.5635242 0.64396346 -1.506636 -1.0809205 0.09087816 -1.8593202 -0.2650736 1.1097683 2.3236856 -1.3253546 1.1997374 -1.4448457 1.1847516 -0.052719355 0.37857997
1728 -0.45212787 -1.2096169 1.120903 0.50320464 -1.1650047 -1.2761148 -0.14183058 1.8066896 0.5843538 -1.1677147 -1.2687409 0.12272926 0.33718878 -0.18229496 0.093270324 0.34894755 0.87869674 2.1885972 0.9734609 1.3720702 -1.5596534 1.5610487 -0.6296889 0.22126451 -1.2258806 0.9896153 -2.0992796 0.07223753 -0.78499424 0.92821807 0.6730339 -1.0436933
361 0.5972926 -0.026642332 0.4064638 -1.5438666 -1.5113534 -1.1905054 1.0588171 0.79619807 -2.29723 -0.89561385 0.2176075 -0.10949988 2.2527936 -0.24876924 0.5468888 -0.4098524 1.178538 -0.21368292 -0.6094654 -0.24131575 -0.11009799 0.7700267 -0.7755773 -0.53074896 0.47397342 1.4271426 -2.5640304 -0.24557662 0.32312924 0.36004204 -1.130263 -0.92581016
438 0.7556635 -1.2072353 -0.09535358 -0.29966187 0.06775706 -0.046301927 0.65608525 1.7806869 -2.0958285 0.049625307 -0.81894964 0.9993294 -0.25075763 0.38779223 -0.025228322 1.223004 1.9568218 1.0820061 0.31656873 1.1227189 -0.5695136 0.17925261 0.39190283 -1.5923944 -0.8938358 2.4256797 -2.121936 0.8574493 -2.1529057 0.2906314 0.6592812 -0.62055606
245 -0.48044854 -0.5446441 1.477537 -0.9589803 -0.7898636 -0.08609972 1.0172225 1.4332432 -0.8563372 -1.0905733 0.83950543 -0.4192249 0.5683365 -0.5346169 0.27040097 -0.48425364 2.7960927 -0.14243218 -0.95241255 -0.91191214 -0.27376637 0.0781429 0.44924307 0.31500426 -0.28456202 1.2374796 -1.9348285 1.3949186 0.022516346 1.0197104 0.41347075 -0.73934823
248 -0.2203422 -0.15623261 -0.5729586 -1.6692637 0.20329525 -2.615272 0.1581953 2.336499 -0.46899316 -1.4457821 -0.19896898 -0.9541528 1.096894 0.6044785 0.15831053 -0.6788653 0.4670901 -0.2559485 0.139691 0.3524445 0.39165807 0.36800447 -0.6201928 -0.3502883 -1.3231282 1.7795075 -0.8009186 0.5913947 -0.62672096 -2.1913612 2.137139 -0.062383033
1622 1.1525905 0.6386848 -0.83262926 -0.37507814 -0.5978997 -1.7132508 0.05668255 2.6434748 -0.31587312 -0.6098389 -0.8837483 0.054430187 0.14948314 -1.987614 1.1949629 0.046749335 0.5769059 0.71724373 0.5851721 0.8050144 0.14409938 1.3670553 -0.5735489 0.43560892 -1.1914603 1.9812382 -1.1954705 0.6033822 -0.2433218 0.5776291 -0.12601176 -0.10765861
358 -0.105535045 -0.54168856 -1.1177872 -0.41307566 -1.9910613 -2.2765586 -0.1176747 1.6917454 -0.8605221 -0.67768466 -0.8490739 -0.5339673 1.3359517 -1.2963525 -0.2957211 -0.5097339 0.7230828 -0.3789996 0.5125403 -0.06287001 -0.25167975 0.2242137 -0.35432956 -0.3972455 2.2972226 0.80449104 -1.4145036 1.1475155 -1.3550725 -1.6336393 1.2630397 0.4473492
899 -1.0115222 -0.5059518 -0.6978209 -1.2613711 -1.846787 -0.73385423 -0.979368 0.96769166 -0.29113045 -2.116466 -0.7755875 0.8506999 0.800451 0.31849483 -0.17159742 1.0978576 0.03523869 0.6610558 0.42059362 1.2656305 -1.8143508 1.5797282 -1.0665892 0.04025036 -0.7094282 -0.43144903 -1.4682934 1.1034217 -0.5246574 -0.8922892 0.2921783 -0.16189432
312 -0.3223021 -0.1333551 -0.18227664 -1.0736942 -1.085714 -0.06792795 1.0513517 2.3010852 -1.7369411 -1.3131001 -1.4577527 -0.6931373 -0.948278 -1.1090444 1.7769312 0.1474444 -0.08034545 0.20426093 0.40237737 0.5626463 0.07613878 1.6589161 -0.12962152 -0.15703599 -0.32235485 0.13659462 -1.201241 0.8398374 -1.9419389 -0.56418455 1.3170398 0.06991223
1431 0.60977376 0.8750891 -0.2422647 -1.1739995 -2.2617843 -0.69457716 0.24083622 0.786266 -0.2447094 -1.3451527 0.21269636 -0.7156791 1.3543286 0.1956197 0.43646118 0.62616706 1.6047666 -0.31255504 -0.77978927 -0.09688083 1.5539145 -0.9443479 -1.1013258 -0.58498436 0.5595955 3.3240793 -0.781714 -0.25744718 -0.665455 2.0528944 1.0316734 0.7744088
1466 -0.6399403 -0.23176484 -0.6346218 -1.0663073 -2.154978 -1.3339707 0.9839578 1.5029055 -1.0687076 -2.1784577 -1.1318744 0.5094185 2.1406817 -0.8991064 1.1653965 0.058583725 -0.15879911 1.0558704 -0.109425545 1.2475481 -0.62548125 -0.6464592 -0.5717233 0.9317385 1.481731 1.0790149 -1.1502298 -0.030214483 0.81708306 0.84099317 0.06326223 -1.2248397
192 0.10973683 0.5925614 -0.8584726 -0.91474783 -0.51905423 -1.0733571 -1.2943503 1.3361958 -0.55619997 0.14693318 -1.1393735 -0.5080892 1.4972446 -0.5878845 1.1328406 -0.40471065 1.7165803 -0.5547253 0.6354176 -0.13889268 -1.6075623 0.1563924 -0.22164445 -0.062388435 -0.3379366 1.3139662 -1.7711985 1.5230896 -1.9426425 -1.9567109 2.2790031 -0.8084052
526 -0.8602693 -1.3064431 0.21940717 0.19201133 -3.4580686 -0.9526034 -1.8313555 -0.22958069 -1.8300958 -1.4861144 -0.9632304 0.7200555 1.2156086 -0.28096232 1.4274329 -0.6973106 1.0546691 -0.30572128 0.6921992 0.19257392 -0.8467477 -0.889249 -1.0329745 0.5904466 0.33198255 -0.5121557 -2.1764686 1.2360077 0.29420826 0.05579645 0.67480373 -1.3890269
967 -1.575315 -0.44957227 -1.1830302 -2.3363771 -1.119263 -0.70638996 0.06733187 1.8092183 -1.0992389 -0.069912784 0.013147012 0.36752576 1.7804618 -2.3816674 1.1141067 0.38671643 1.3890519 -0.85434866 -0.607637 0.09513696 -1.3402715 -0.76758164 -0.0396193 1.5248905 -0.17186569 1.3130183 -1.5240172 0.38243997 0.7572348 0.4281715 0.50434756 0.12829407
314 0.6085482 -0.6090422 0.61574334 -0.32184425 -0.5254522 -0.31678563 -0.44418326 0.9061299 -1.3099984 -0.89134985 -1.5927502 -0.89577407 1.6961068 0.05757184 1.5841075 0.8116473 0.89865667 0.3996233 -1.2206731 -0.7286809 -1.235607 2.4065142 -1.3517339 -0.74934685 -1.42897 1.302168 -1.3187866 1.1225166 -0.8760262 -0.9227784 0.14786947 -1.0607543
207 -0.6229825 -1.3152357 0.6742387 0.7872348 -1.6478548 -1.7107383 -0.00027077305 2.039798 -0.519482 -1.3313109 1.1755319 -0.15080783 1.6564908 -0.29354936 1.0994121 0.568787 -1.3281307 -1.0295298 1.3317134 -0.10485553 -0.5296639 0.7061584 -0.9068482 0.7822667 -0.6700405 1.4014429 -1.219113 2.1782832 0.06829876 -0.5044043 1.4188989 0.06931593
1764 1.234761 0.98890734 1.0088786 -0.1480837 -1.355267 -0.6402134 -1.8373723 0.79734397 -0.18641925 -2.5461323 0.49132025 0.31475958 0.7270082 -0.7692026 0.90524286 0.58402413 0.7404052 -1.4031416 -0.17321418 -0.30971104 -0.65353584 1.6248685 -1.3747507 0.12422112 -1.18075 1.2604988 -0.8127634 1.572542 -0.8376137 0.9447241 -0.72130805 -0.74778324
346 -1.4224302 1.1431632 -0.3845585 0.91188395 -0.29540008 -2.2717617 -0.7127394 0.57771623 -0.85195154 -1.7597778 -1.3636686 -0.3864769 0.9934538 -0.30932593 1.0191777 0.6050245 0.5950642 -0.9537954 -0.19285923 -0.30160224 -1.159287 -0.3294868 0.6463314 0.88079387 -0.7352175 1.0974197 -2.1294658 -0.29673088 -1.7996773 0.22289354 1.4462216 1.001706
976 -0.27186042 0.18341069 0.32154495 -0.5742114 -2.0977976 -1.6704493 -0.03193954 1.3853582 -0.7338532 -2.1867316 0.64874405 0.6052275 1.8103447 -0.42515776 -0.49929878 -0.61167294 0.8871071 0.9739647 -2.9977212 -1.2283384 0.078553535 0.6739724 -0.7395434 -0.31120694 -0.5710132 0.46686935 -1.002158 0.4786839 0.8098031 1.2022804 0.21878587 -1.1294217
382 0.25165084 0.8340238 -0.0673156 1.1364374 -0.80674016 -1.0965483 0.09151018 -0.048016798 -0.94344836 -0.8938731 -0.76370615 0.36817056 0.038421016 0.2711319 0.52981156 0.14721785 0.44791526 0.6221454 -0.04691036 0.89623433 0.5171611 0.79185754 -0.6077772 0.9816228 -0.093353584 1.6181802 -1.3027456 1.1292701 -1.2289146 -0.950248 -0.07156723 0.25435406
1068 1.2070513 -0.19626701 -0.02022206 -0.027809812 -2.4566917 -1.1479363 0.73763317 1.1587293 0.7598815 -2.4455664 0.21448334 0.9237191 -0.40439594 -0.726793 1.2351278 0.46134576 2.505389 1.3038212 -1.2205113 -0.28585437 0.33086222 -0.45578352 -0.39364552 -1.5453899 -1.0448852 0.9278663 -0.2594186 1.2443744 0.3878169 -0.055493496 1.0376962 1.3088727
1717 0.87674165 0.14732517 -0.10607331 -0.97923446 -0.82431656 -1.9877254 -1.2394484 0.42756313 0.17012078 -0.8626741 -2.038213 0.24946754 0.052478146 -0.468183 1.776287 1.8371001 2.4635751 -0.9303793 0.041924916 2.3192458 -1.4194614 -0.18173935 -0.6151824 -0.26879042 -1.3259994 1.1175307 -1.3161498 0.9020817 -0.94196355 0.26726878 0.50931853 -0.3065963
383 0.05722657 1.0345793 -0.38230744 0.9780518 -0.981705 -0.9032786 0.12870362 0.21968432 -0.70225924 -0.9128326 -0.6134774 0.34338716 0.17863868 0.19654416 0.49736348 0.17759098 0.3035464 0.692535 -0.46737772 0.48906955 0.6923665 0.80124056 -0.34758243 1.1052042 -0.13867983 1.4313076 -1.130237 0.78545207 -1.469008 -0.9727327 0.033209074 0.39481562
1738 0.22530924 -0.09569684 0.229719 0.68994814 -0.9954287 -2.1735415 -0.19194812 0.7265755 -1.3346359 -3.1271014 0.66075987 0.9493675 -0.5088402 -0.8267426 1.5269336 -0.005747888 -0.5793275 -0.44205755 -0.3062313 0.7454968 0.9204301 -1.2216984 -1.1646391 -0.46187913 0.69661 0.67950994 -1.659877 -0.08471371 -1.0089417 -0.44755247 1.6931622 -0.36929375
1744 0.8523981 -0.58678895 -0.6353753 1.0360688 -1.4299325 -2.5109334 -1.5521573 1.3399206 -1.4461865 -1.6097467 -0.07229652 0.7958977 0.59269655 -1.6694247 1.3276575 0.095530085 1.2030216 1.4307817 -0.24952562 -0.16622564 0.39494413 -0.590253 0.2818151 -0.5237743 -0.54216397 -0.028151413 -1.7303315 1.6145445 0.084872514 -1.7662259 0.2698439 0.31023085
639 -0.22170646 -1.0987558 0.3162239 0.28508753 -0.3968683 -0.40182814 -0.97544885 1.2354164 -0.4420553 -0.53526044 -0.24405888 1.0280677 1.1256876 -0.40610215 0.4608077 -0.34015664 1.2801571 0.021594208 -0.67603844 1.3015566 -0.6708548 0.45981482 -0.79755324 -1.1353651 0.27131522 1.1944082 -0.9839824 -0.44556075 0.23371676 -0.21921729 1.2865918 0.5031996
1075 -0.7202012 -0.025746724 1.326739 -0.04847847 -0.74590015 0.70327663 -0.2127095 0.056090705 -1.7279499 -0.15557416 -0.5760717 0.5541805 0.7148633 -0.1817198 1.34858 0.36007527 2.5650394 0.60003924 0.48141685 1.085135 -1.231142 0.9844043 -0.9852129 0.8683003 -0.3464307 1.1858448 -3.5305321 0.0531115 -1.5265797 0.7110927 1.4130278 -0.57799673
1702 -0.20748453 0.3894001 -1.4835985 -0.23407033 -1.5543714 -2.23884 -0.36242113 0.18808444 -1.2389429 -1.3314232 0.03464048 0.35060146 1.0663364 -1.3414309 1.6721424 0.21850915 0.7798839 -1.7538565 -0.030534284 1.146771 -0.40030545 0.50437945 -0.1180755 0.14493772 -0.9078737 0.6661838 -1.7630183 0.5672148 0.6998876 1.6377852 0.65780264 0.2778297
809 0.55928886 1.8876467 -0.30180195 -1.3110673 -1.7986555 -2.229937 -1.2525057 0.20546798 -0.92172676 -1.9920287 0.7684403 -1.5974324 0.22953026 -0.39580777 -0.15386477 0.3759014 1.4428049 1.8086807 0.16443153 0.5216584 -0.90686613 0.81588054 -0.8276901 -1.8609731 -1.4745905 1.3402163 -0.27454355 0.5720529 -1.4239289 -0.55410856 0.98309106 -0.6905285
1566 -1.3907815 1.0562981 0.6218473 -0.6864992 -1.8784364 -0.054062486 -0.2841299 0.3620028 -1.5949316 -1.5462158 -0.7263185 0.62086123 1.865003 0.04092216 0.4179256 0.23181292 0.6134035 -0.68193424 -1.0785636 -0.42783877 0.058359493 -0.4174446 -2.3802798 0.3463124 0.49137214 1.4113712 -2.2560682 1.6473273 -0.30386823 -0.7511733 -1.5950619 0.7075061
384 0.4109853 0.69096303 -0.26097915 0.74115396 -1.1018752 -0.7690375 0.28277266 -0.016589066 -0.5740373 -0.9884358 -0.7750052 0.27391884 0.22629894 0.07907424 0.584814 0.29811817 0.7370219 0.7311924 -0.57231575 0.4768466 0.8361231 1.2189715 -0.0142822405 1.1824806 -0.048588905 1.2679185 -1.2752452 0.5641355 -1.4256567 -0.76983196 0.099839345 0.35863677
1494 -0.8291335 0.40879005 -0.78567207 -0.66164124 -1.0891217 -1.1119205 0.9948428 1.6748708 0.25548562 -1.3673584 0.41546306 -0.9926266 -0.29792 0.059290737 -0.092094816 0.111202866 0.162829 1.0032939 -0.34102365 -0.20748468 -1.0323668 -0.8650528 -1.4771011 0.9787242 -0.2629339 0.3945974 -1.0847638 0.376625 0.583441 0.925376 1.4892434 -0.45610383
1076 -0.81833935 -0.982922 0.7689964 0.15424404 -1.6459634 -0.586371 0.3520535 -0.2469982 -1.66586 -0.5764947 0.6000874 0.5561299 1.5107682 -1.1756089 0.6623771 1.0793493 1.0969881 0.3682454 -0.29313046 -1.0295177 -0.9588577 -0.03906591 -0.6998588 1.5956291 -0.5053502 1.3695734 -2.2219388 -1.9212213 -2.2228258 -0.1363034 1.6619678 -0.60298026
1038 -0.69665235 -0.13354416 0.33367944 -3.6149993 -0.8124583 -0.84777904 0.31065845 1.3059714 -0.96879625 -0.15715723 -0.19234951 1.0922672 0.39292398 0.09415937 0.7882147 0.649086 1.8605847 -0.99921095 -1.0376356 0.31405035 0.6134151 -1.3637567 -0.9391811 0.27831468 -1.6579825 1.5134667 -0.4582208 0.554975 -1.5240374 0.58819515 0.14650106 -0.9201419
325 -0.3072488 -0.40221435 -0.98505276 -0.6314944 -0.7776884 -1.6144463 -0.75997967 2.2690735 -0.3539527 -1.8281549 -0.4067436 -0.51684904 -0.7254147 -1.5408773 0.49550495 0.8846707 1.3829757 -1.2420708 -1.8646809 0.5296519 -0.021787202 1.347081 -0.35443428 0.33546948 -1.3124454 0.115069024 -1.5398549 1.0179098 -1.3634896 1.0776497 -0.89115834 -0.8770007
282 0.023076225 -0.05318681 -1.9731644 -1.0375223 -1.3774506 -1.5522038 1.2113512 2.4793544 0.08226041 -1.7021786 -0.08383704 -0.8579513 0.104009636 -0.31141606 1.9800689 0.28086105 1.4738129 -0.36350867 0.88521343 0.095912315 0.49068925 1.03082 0.41392523 0.61258227 0.5150695 0.79289615 -1.3575453 1.7964888 -1.5082781 0.15959053 -0.6801959 -0.20304857
448 -1.1098044 -1.3926442 -0.8020272 -0.057320282 -1.8887823 0.042518575 -0.45867667 3.1804984 -0.241896 -0.9028683 -0.51312107 1.4031086 0.07441672 -0.5566061 0.55228597 0.489479 0.43106076 -0.5461884 1.5748979 0.033604607 0.061625805 -1.2962731 -1.9865977 -1.7522529 0.51159346 0.43075722 -1.7126366 1.8528974 -0.64775234 0.7153779 1.4272789 0.7236918
1693 -0.84817857 1.0286003 0.6564635 0.5729837 -2.2349782 -0.21925813 0.49215573 0.58644456 -1.2308959 -0.63341177 -0.6380058 1.134302 1.1889173 -1.5540516 0.4983407 1.5801637 0.8680608 1.1944621 -0.3795051 -0.04212811 0.27664387 1.3424299 -0.50285244 -0.85271925 -0.48190323 2.081775 -1.851354 0.19452535 0.29361933 1.6890843 1.4103214 -1.1471666
1703 -0.5531964 -1.0524477 -0.85873926 0.829999 -1.64364 -2.339178 -0.68162763 1.4474392 -0.6853092 -2.1115153 0.55178887 0.5954026 -0.14820671 -0.7489184 2.0030384 0.5715734 1.7332189 -1.7429252 1.1431206 1.1087521 1.1021799 0.895665 0.054608602 -0.38523236 -0.6274456 0.36807743 -1.0343626 0.62073594 -0.5661472 0.5217049 -0.026465416 -0.04179659
825 1.2675234 -0.52229124 0.5818973 -0.80652934 -2.214223 -1.2167557 1.6689725 1.0664072 -0.37124008 -2.3832781 0.81341565 -1.049248 1.4337187 -1.04374 0.019586304 1.2362517 1.3970006 1.517078 -0.8315347 1.1026267 -1.807718 0.95880365 0.9529565 0.69971997 0.4359443 1.8141778 -0.7259387 0.94209385 -0.014514779 0.87151986 0.15733236 0.28248888
888 -0.037891317 0.47866723 -0.26899767 -0.37325776 -1.1879108 0.33416152 -0.03950411 1.2386167 -0.28228426 -0.6608628 1.4949661 0.48937678 0.9583917 -0.659529 1.1220618 -0.44558567 0.9540878 0.22296777 0.743445 0.29148 -1.1664803 0.16700536 -0.29120103 0.1932271 -0.9016944 0.0567152 -1.5540473 1.2640655 -0.85080326 -0.32784465 0.3187469 0.66165805
636 -0.42922923 -1.9383918 0.8915921 0.23675227 -0.41750497 -0.74672 -0.9274504 1.112636 -0.76710993 -0.54024434 0.09455242 0.5592561 1.4623314 -0.11689181 0.89808744 -0.5078161 0.9282737 0.16637902 -0.9697147 0.7819604 -0.7530543 0.38783503 -0.48478177 -1.3637489 -0.20950522 0.6541042 -1.008444 0.2490011 0.37350258 -0.6106231 1.0256556 0.59026664
434 -0.10841152 -0.37680057 0.6541768 -1.1813515 -0.933244 0.37620103 -1.5454766 1.7145085 -0.99954957 -1.4173883 -0.48585063 1.1788898 0.5621249 -0.2229365 0.43517253 1.5825346 0.645269 -0.30595863 0.35220805 0.6300296 -0.38097367 0.22037908 -0.89481044 -2.941875 -2.2412894 0.796952 -1.5587326 1.6315854 -1.4941951 0.45788968 -0.7513178 -0.6780782
1493 -1.344285 1.059139 -0.60018927 -0.70727736 -0.8606024 -0.5308113 0.70423794 1.5980786 -0.068917595 -2.1021745 0.24543446 -1.2744044 0.007314107 -0.6037772 -0.09570461 -0.35198253 0.09024321 1.0116798 0.047626592 -0.06991904 0.28642833 -0.616358 -0.85854393 1.1217352 -0.23538935 1.031604 -0.9022821 0.18034889 0.2042289 0.5951899 1.6387548 -0.04994972
1253 -0.24577188 -0.66072774 -0.16717857 -0.9467119 0.7593885 0.25280166 -0.32068148 2.0430217 -1.6118326 -1.4569155 -0.30893096 1.1768476 0.4299751 0.23551278 0.62588423 0.5551406 0.4458103 -0.60880244 -0.04456879 -1.1909119 -0.27259466 -0.08370861 -0.68101263 0.70970327 -0.59268725 0.43180516 -1.3452072 0.49832374 -0.12329998 0.32388458 -0.39490482 -0.2959295
889 0.1864658 0.30257943 -0.16693546 -0.22421755 -1.1407309 0.24418832 0.21000497 1.4477528 -0.29301426 -0.66152835 1.723901 0.39871085 0.76549757 -0.15300572 1.5955245 -0.58540124 1.1165124 0.3294558 0.74990207 -0.29740876 -0.77581334 0.2193265 -0.3633441 0.33599898 -0.6312595 -0.010016836 -1.165433 1.1314154 -1.2620265 -0.16643532 0.75298405 0.66826767
144 -1.1938577 -0.6171847 -1.1394817 -1.0958021 -1.8367386 -0.8384796 -0.18618965 0.17152314 -1.486094 0.34626687 0.55529946 -0.70741177 0.12844072 0.20477998 0.5813225 0.9157618 1.0679086 0.44956636 -0.5484128 -0.5506483 0.5321689 0.9671218 -1.3922956 -0.24926981 -0.8317455 0.6073923 -0.26878765 0.20356223 0.20556645 0.8507295 0.14283243 0.46118733
1724 0.93277687 -0.101566784 -0.44272888 -1.0875754 -3.0062866 -1.554828 -0.5372283 0.8055121 0.74096036 -1.2059959 -0.8450629 -1.2489468 0.8635848 0.83402216 0.012621283 -0.06912977 1.4689751 0.9608824 0.905236 0.4219816 -1.9968042 0.29327428 0.68919474 1.2379932 -1.7559603 1.4335536 -1.1040225 0.73149425 -1.6802276 0.4214585 0.5958559 -0.31865534
369 -0.6843869 -1.2868514 0.36414593 -0.34095928 -1.0565028 -0.67232835 -0.6091658 1.3442215 -1.7163439 -1.0737808 0.3971281 0.44258928 0.33801377 -1.3259815 -0.30197498 -0.5249016 -0.77560407 -0.8793409 1.1622438 1.5367951 0.26906252 0.89100635 -0.119799286 -0.6685028 0.3317665 1.7316006 -1.5670065 2.3898246 -2.3131902 0.23253426 2.2493765 0.68359953
811 -0.21429513 1.6148973 1.106946 -1.8330027 -0.9159605 -2.211413 0.28175235 0.8847094 -0.6888764 -1.2375543 -0.0422915 -0.48285675 0.6730253 -0.5564831 -0.99129015 0.6099919 0.6311487 1.0092583 -1.5404168 -1.1907878 0.33185112 1.042395 -1.5297785 -0.085390754 -1.9154814 1.8220811 0.2990117 1.8689854 -1.2702711 0.7137458 1.9884114 -0.94812804
1464 -0.9073053 0.70935196 -0.49808985 -0.5129338 -0.6966298 -0.8881177 0.8131261 1.7975554 -0.43042487 -1.0767437 0.26467022 -0.83295375 0.0246889 -0.76299804 0.07191101 0.6380894 0.6142128 0.62577266 0.4874166 0.19664115 -0.75411123 -1.2820678 -1.2273865 0.9166949 -0.83274174 0.035468858 -0.9170765 -0.28519112 -0.00417346 0.85359246 1.562876 -0.78484964
1492 -0.87995297 0.08627204 -0.28964928 -0.7895488 -1.5426598 -0.23387763 1.1041101 1.2138407 0.24005799 -1.7933004 0.42142028 -1.2841009 -0.8070491 -0.7938839 -0.6200311 0.55708027 0.52890295 0.54422504 0.35601202 0.11334524 0.5017629 -0.8991123 -1.0481158 1.0993785 -0.963086 0.65869474 -1.276838 0.6780906 0.094874136 0.3369093 1.1105927 -0.18190601
137 -1.6053259 -0.47769493 -0.6992175 -0.18685089 -1.7480577 0.49180585 -0.7194266 0.5920388 -0.2447558 -1.033338 0.9075674 0.17511223 0.3369896 0.98398894 -0.5248952 0.56124794 0.53427416 -0.18578525 -1.1577842 0.69863605 -0.49556145 0.50590354 -0.84741956 0.19271238 -0.17317519 1.10737 -0.3544576 0.80268747 -1.7199752 0.8404635 0.14494634 -0.4553533
1512 0.46187577 0.9996791 -0.58749115 -0.20485705 -1.7829676 -0.4506101 0.24308911 2.5666285 -0.25050285 -0.80146104 -0.34875995 -0.4723554 0.73143554 -0.79935104 -0.49498296 1.0201714 -0.7671855 -0.09407158 -0.369596 -0.50215995 -0.6404047 0.12257988 -0.20718805 0.28898513 -0.9408489 0.24108829 -0.54615897 0.04617768 -0.5952921 0.21514377 1.217452 -0.28027642
418 -0.9168631 1.2565222 -1.1970334 1.4207596 -1.3247839 -1.7400308 -0.0810546 1.3380585 -2.7925754 -1.4861453 -2.197338 -0.27049872 0.3223193 -1.2536267 -0.40928525 -1.2863231 1.3352704 -0.117582306 -0.4193278 -1.3297132 -0.89025605 0.84023035 -0.53121835 0.38491288 -1.3318992 2.1414685 -1.1018935 -0.052924056 -0.7838029 1.7956916 0.6430199 -0.6120319
1111 -0.66643834 -0.62280715 -0.6284864 -0.46686977 -0.70647144 -1.40136 0.79862595 0.2935994 -1.0441557 -0.9267401 -1.4240394 0.95530665 -0.24246648 -0.76064086 -1.464984 1.1342114 -0.05424008 0.41747856 -1.2685664 -0.13155566 -0.63740516 -0.821328 -0.55026203 -0.7313503 -0.44673696 1.5180829 -0.1571644 0.37380186 -1.1762418 -0.20795336 0.37251288 -0.71592313
644 -0.2839409 -1.3243891 0.5611743 0.41849947 -0.6535756 -0.9211865 -0.56722087 1.1393614 -1.1760488 -0.8622143 0.3218498 0.31382737 1.5574024 -0.5567219 0.2528468 -1.2920278 0.72592646 -0.6614167 -0.9922922 0.59766 -0.8649454 0.962127 0.002979467 -0.9398774 0.42192194 1.1291945 -0.936854 -0.18946722 0.26198843 -0.583314 1.1844153 0.23847972
939 -1.693617 -0.9978367 0.45324597 -1.0537384 -1.1282179 -0.18386908 -0.61308765 0.92766464 0.11226368 -0.6414641 0.21133178 -0.87998956 0.73347926 0.5840068 -0.17035803 0.65450186 0.39892048 0.0807175 -1.1016983 0.6163397 -0.82837105 0.8293493 -0.063665494 0.8096114 0.013757316 0.73749673 -0.70250267 0.3729708 -1.9449283 0.31316495 0.3933869 -0.014838923
890 -0.1006062 0.1526078 -0.07496588 -0.4620419 -1.40309 0.010537724 0.24376361 1.4388845 -0.072514914 -0.6629096 1.6849982 -0.06593066 0.83235633 -0.15613468 1.3960366 -0.909787 1.2083855 0.5810508 0.50401944 -0.20160893 -0.7599789 0.53706765 -0.14829789 0.4116251 -0.7114508 -0.19785425 -1.2229798 1.1738217 -1.1817638 0.06228566 0.6080081 0.88660675
895 -0.10042978 0.25619066 -0.38352144 -0.4859871 -1.1332574 0.12058096 0.102568485 0.9602045 -0.149121 -0.74286574 1.3822749 0.5361465 0.65590113 -0.7877187 0.8380565 -1.1216445 0.6768992 0.58854663 0.9306568 0.54405206 -1.3645573 0.71663785 -0.636538 0.15703613 -1.0309131 0.6567492 -1.3945618 1.4297315 -0.7452153 0.04767997 0.62324625 0.9658806
1513 0.32843238 0.6764963 -0.2701748 0.0006824539 -1.9104497 -0.8497737 -0.04554146 2.1886065 -0.15459238 -0.70995367 -0.2033177 -0.47831368 0.7084163 -0.72570384 -0.20482168 1.2282636 -1.1602762 -0.04667722 -0.42753732 -0.42780873 -0.4588431 0.09799753 0.016387679 0.10463302 -0.9594015 0.34720305 -0.8216692 -0.2960022 -0.5702305 0.21010007 1.3973598 -0.2871734
322 0.70604676 -1.0988437 -0.24975869 -0.21562982 -0.5506771 -0.66060364 -0.108254604 0.17268331 -1.4553651 -2.1048918 -0.013500279 -0.6077875 2.0472245 -1.4581102 0.40626034 0.66658115 1.3736359 -0.3718086 -1.1747139 -0.2572597 -0.42285433 2.7575157 -0.50745606 0.2982864 -0.9479093 1.7797916 -2.185894 0.9997858 0.18171157 0.7164817 -0.59777606 -1.4050884
481 0.23687024 0.9110395 0.7248132 -0.41312382 -0.9051142 -0.07108181 0.4942012 0.44031152 -0.83260685 -1.0009376 -0.75144917 -0.15639693 -0.3783978 1.0144587 0.28887117 0.310773 1.5732342 -0.79408395 -0.22349519 -0.48784778 -1.1782583 -0.40209264 -1.1661751 -0.96334255 -0.82122177 0.3618386 -0.40228313 0.3851374 -2.0052178 0.44373536 1.0013666 0.39066246
138 -1.8362858 -0.44194815 -0.789657 -0.20191425 -1.6607714 0.45812473 -0.32816207 0.68688154 -0.5297637 -0.5013079 0.8557719 0.29543445 0.4265892 0.9216471 -0.21262713 0.80535144 0.42183658 -0.19550806 -1.0361463 0.8246403 -0.5907842 0.5950859 -0.81604517 0.13046692 -0.44807696 1.1997279 -0.5383893 0.3813678 -1.5231214 0.75016874 0.22901098 -0.20280403
1115 -1.1931732 -1.1204568 -0.18770091 -0.50515956 -1.8052438 -1.9446476 -0.36278442 0.3973126 -0.5245157 -1.0668693 -1.8897512 -0.22833776 0.3015088 0.2636662 -0.4335129 1.7356993 0.24059209 -0.25921142 0.10721161 -0.024920031 0.7032946 -0.636876 0.4636092 -0.98571855 0.31273276 0.753453 -1.0823461 0.10041548 -0.5635652 0.22052808 -0.48415893 -0.62434024
1116 -0.20002736 -1.2279083 0.5110714 -0.7629391 -0.34652784 -1.3016219 0.041145463 0.399107 -1.6687397 -1.9681605 -1.1934438 -1.7044526 -0.057782043 -0.34746248 -0.509025 1.0324035 0.20213683 -0.36801732 -1.0967079 -0.08359052 -0.282296 -0.4594984 0.21233238 0.42396873 -0.32230347 1.402603 -0.7437417 -0.55130345 -0.9168917 -1.0930604 0.82229745 -1.5010895
1508 -0.53502077 1.025477 0.07663173 -0.95918274 -1.6453918 -0.05650311 0.60791755 2.7956815 0.39103413 -0.23257913 -0.030921131 0.013025696 0.5828577 0.11612117 -0.50070804 1.0318259 0.2584477 0.8103615 0.34784335 0.0037777594 -0.4586348 -0.28092262 -1.0221076 0.60800487 -0.54237366 0.3743739 -1.0290043 -0.30051574 -0.04802218 0.111686334 1.2115211 -0.7548726
1734 -0.80598354 -0.08982151 1.2051 1.2624371 -0.16285288 -2.1262312 0.4147637 1.4674983 0.332148 -2.8428268 -0.7622612 1.4908156 0.6971474 -1.4022063 0.41546592 0.58183086 0.69432306 -0.11750871 -0.5653721 -0.2896641 1.0983173 0.43871656 0.036455106 -0.36605996 -0.49818352 0.88857025 -3.351429 -0.1412775 -0.6235809 -0.14575905 2.518562 -0.59360105
787 0.2772087 -1.0458764 0.3720903 0.20573592 -0.8423284 -0.52485174 -0.88872206 1.1233191 0.014344807 -0.6019373 0.019073986 1.0176294 1.4049472 -0.82814753 0.21693334 0.029810317 1.4599922 -0.24777731 -0.9108295 1.423418 -0.40989858 0.6028537 -0.77718043 -1.2690551 0.35804224 1.1497744 -0.70380145 -0.14706744 -0.08106202 -0.5427819 1.1538266 0.8267515
940 -1.8615001 -0.833061 0.24359663 -0.79452705 -1.1753033 -0.09997219 -0.6463682 1.014185 -0.010732349 -0.6571361 0.38025674 -0.8868391 0.7663557 0.21134949 -0.3486947 0.78693664 0.32029963 0.023203282 -1.1827626 0.83333373 -0.7126929 0.88278633 0.053690523 0.6291683 -0.34835345 1.0264333 -0.34355223 0.9109325 -1.5896319 0.42662993 0.37660167 -0.08237585
1333 -0.51956797 -0.36302885 0.08717797 -0.5831636 0.6842118 0.14856805 -0.48866946 1.784508 -1.3902994 -1.9554161 -0.12503949 1.4022772 -0.17005882 -0.47931704 0.1932233 0.6495303 0.34388113 -1.0382786 0.73192775 -1.5019155 -1.4871587 0.22973984 -1.0220567 0.83218884 -0.5556607 0.9447926 -0.56113976 0.71129245 -0.63246363 -0.005256159 0.7974409 0.33415252
1509 -0.3652054 1.103046 0.14922912 -0.48045987 -1.8811375 0.058302965 0.45172977 2.8455915 0.3744977 -0.45001876 -0.21711968 -0.05947986 0.556627 -0.099988416 -0.42847714 0.81447816 -0.0006244506 0.4881662 -0.046327855 -0.07107438 -0.74565107 -0.5402427 -0.92124677 0.62566364 -0.4814812 0.36822253 -1.1859525 -0.37652972 -0.22328113 -0.07771053 1.1745216 -0.69553447
1110 -0.55922246 -0.36280143 0.19880122 -0.2052911 -1.2357281 -1.000972 0.60098743 0.2368872 -1.039364 -0.95491594 -1.3020433 1.3941789 0.1231537 -0.50759125 -1.2416358 1.0685277 -0.41546217 0.20992818 -1.5423812 0.047436554 -0.545707 -0.7361662 0.116141014 -0.82850647 -1.0299053 1.7265333 -0.72908777 -0.044022 -0.961815 -0.15216011 0.519694 -1.0950267
1833 0.26684478 -0.6648217 -0.915344 -0.64472383 -1.0960051 -2.7640486 -2.3459077 1.7961984 -1.717049 -0.9239425 -1.3888302 -0.62847936 0.31755275 -0.8345465 3.4458528 -0.17968601 1.4985145 0.5519407 0.4165847 0.24241702 -0.35561043 -0.11333455 -1.7594676 -0.4155937 0.56370986 -0.37480637 -1.3782251 0.57568866 -0.80768317 -0.68294615 0.81094265 0.10769076
1785 0.46244475 -0.73578113 0.27746427 -0.5579597 -1.1252372 -0.25080848 -1.5498981 2.43377 -1.3923504 -0.9754643 -1.1487925 -0.6944947 -1.5748016 -0.42623723 1.105922 0.5404024 0.5393969 1.5859253 0.15141198 -0.9415846 -2.4262114 1.5694511 -1.115206 -1.4885423 -0.7880539 1.1848091 -2.3464663 1.0689561 -0.40671128 -0.074041784 1.0232234 -1.2749346
190 0.56784153 -0.8233291 0.41245455 -0.7612908 -2.7195127 -2.5565965 0.43652752 2.675342 1.1940441 -1.5595661 0.47261646 -1.1567615 0.32929295 0.8494255 1.1956724 0.8589972 1.0898027 1.2418528 -0.16505736 1.0799673 1.0278531 -1.2271401 -0.87518686 -0.58657295 -0.6577335 1.2099344 -1.1275095 0.14295453 -2.009488 0.5859606 1.0602154 1.7194508
1658 0.6343022 -1.4237624 -0.46224082 0.12117374 -2.5942304 -2.803546 -0.45315644 3.2198288 0.3454419 -0.7075025 -1.5427908 1.244961 0.676344 1.3190454 0.73474115 0.8665503 0.42385358 1.4830827 -1.7463188 0.2465853 1.4006166 -0.7457431 0.22691254 -0.012403162 -0.57979465 1.8233685 -1.4303467 0.3867819 -1.463511 1.4138012 2.007633 0.999945
1781 -1.4203658 -1.4199945 -0.43013993 -1.1679909 -0.92099816 -1.8142977 -1.0241793 0.5196289 -0.38657257 -0.98434484 -0.16066745 1.7996793 -0.49949425 0.18002377 1.3964444 -0.13433044 1.5038784 1.5851592 0.56415355 -0.7426557 -1.9762517 0.59419394 0.8958982 -1.1106339 -0.24627124 2.4546306 -2.6064374 0.17838576 -1.1808288 1.7879242 0.61111337 0.8243182
363 -1.0681448 -0.8711393 1.1510707 0.057796903 -1.0498283 -2.4999876 1.194357 0.756142 -3.645866 -1.1538515 -0.2836534 -0.760875 -0.20242344 -1.3055068 0.9584286 -0.31646615 0.7213816 -1.7668743 -0.17528847 0.36676368 -0.60933644 0.2098895 -0.948491 -0.26769477 0.27287847 1.082592 -1.247015 1.5804942 -0.72066903 -0.95585465 1.0264779 0.6395239
267 -0.012857392 -1.8616393 0.51349884 -1.7339249 -1.5336937 -0.23154308 1.5042055 2.2649434 -1.6001393 -1.0213541 -0.29057252 0.93563616 0.21979107 -2.5656977 -1.2361314 0.703599 0.5319227 -0.98689616 0.54273725 -0.008111662 -0.7320755 1.2989137 -1.982349 0.525768 -1.2184294 0.66385883 -0.80617505 1.7483366 -1.7294787 0.1266121 0.3445705 -0.7311699
1073 1.3912916 -0.35585377 -0.8538934 -1.2802411 -1.3355933 -0.86159164 -1.9894513 3.6759543 -2.008185 -1.0275228 -0.9079976 -2.1655033 0.37953272 -0.18909678 0.92070204 0.6122245 0.73080814 1.3138196 1.236401 1.1564862 -0.051824473 -0.2574086 0.40075037 -1.2862457 -1.0134729 2.1969552 -0.71418 0.80087334 -1.6846577 0.1685917 1.5678482 -0.10611092
366 -1.6050111 -0.16232133 0.030669916 -0.7965722 -0.23055042 -1.9163266 -1.2782722 2.9648657 -1.9763583 -0.34608775 -1.4162008 -1.0650867 -0.37544692 -0.41503707 1.484439 0.7155409 1.8112518 0.9065857 -0.4733807 -1.1980116 -0.74789834 0.11647396 0.21136214 -0.837421 -1.350562 2.0559766 -0.77640855 -0.1791532 0.28616372 0.8792977 1.5891635 -0.7696842
1790 0.16346112 -0.39911664 0.48484328 -0.1284177 -2.567647 1.2028518 0.59849566 1.0437864 -2.297517 -2.6794493 -1.444819 0.1160561 1.0616356 0.98323876 1.2972147 0.26435935 1.6004055 -0.35239756 -2.2040033 0.5044795 0.10387554 -0.6600795 0.5421496 -0.97179174 -0.043253493 2.334602 -1.5776682 0.7509692 -0.96833336 0.46175003 0.005455287 -0.27282023
1787 -0.21293212 -1.3052347 0.31254426 -1.2918417 -1.8582418 -1.486075 0.056204557 1.3905432 -1.3463038 -2.5561051 1.0214925 0.58459115 0.83596283 -0.4509503 1.858417 0.27795988 0.90657127 -0.76867545 0.9173619 -0.31951848 -0.25394404 0.22039989 1.2495369 0.04490022 2.0227928 1.9067572 -1.3450764 0.5624737 -1.5324779 1.0990449 -1.046475 -0.21005018
182 -0.7187266 -1.129085 -1.924698 -0.5623733 -3.0579956 -1.7040621 1.1773562 0.81935436 0.40830642 -1.1970698 0.4863186 -1.1270717 -0.16488008 -0.75929785 -0.0072965547 1.5115565 -0.34355524 1.1060737 0.74439603 1.5829263 0.6063402 0.92918193 -0.9288597 -0.7353701 0.18021354 1.34099 -2.615191 2.1958303 -1.5335742 1.4195963 1.0501186 0.024859829
1635 -0.9936925 1.062408 -1.8121827 -0.99394315 -2.7787113 -1.2007471 -1.7151839 1.2886901 -0.89381033 -0.86198246 -0.8616508 1.828841 1.0410852 -0.5899027 -0.06437239 0.44319594 1.853099 1.3111141 -0.46287817 0.5513947 -0.22075205 0.58459496 0.7456609 -0.9419275 -1.2131388 2.1613386 -1.6316586 -1.0511264 0.15762506 1.041329 0.6202309 -0.8335006
188 -0.8573834 -0.4035741 1.3930529 0.8179444 -0.34832227 -1.2461262 0.53922826 0.6144365 -0.9391506 -2.445944 -0.55169415 -0.2275894 1.7296592 0.8668137 2.3645957 1.5406598 0.61715347 -1.1282303 -1.3394549 -0.7340908 -0.033002388 0.572216 -1.2691215 -0.40484896 -0.3634477 1.7823623 -1.1667376 2.1085498 -1.4016424 -0.05726805 -0.28390098 0.86304957
1511 0.25823697 1.1609455 -0.12077986 -0.28608513 -2.0965679 -0.22363621 0.13888654 2.808041 0.0015741641 -1.0986365 -0.522603 0.24260534 0.24520358 -0.41951007 0.0235914 1.2255856 -0.5441424 0.12819159 0.0252362 -0.60802567 -0.54811037 -0.7096993 -0.46199855 -0.00079974666 -0.6754004 0.14027302 -0.81612885 -0.29550347 0.07280087 0.26915362 1.2248679 -0.13442205
385 0.3094745 0.60105217 0.23317158 0.8370632 -1.4619328 -0.830933 0.0002161481 0.18644664 -0.69600695 -0.9058654 -0.7553489 0.4748016 0.34190077 0.12976298 0.7701485 -0.03162981 0.74634 0.60563266 -0.95990497 0.18897071 1.1323205 1.041632 0.047675915 1.3199987 -0.23931552 1.3691834 -1.3910869 0.13144492 -1.5116477 -0.8060036 -0.12582861 0.67070717
941 -1.5257096 -0.7968526 0.17278266 -0.7718449 -1.1460178 0.26061162 -0.82792157 1.0380446 -0.4632757 -0.38921884 0.35537335 -0.5535922 0.5841064 0.19422285 -0.253426 1.248317 0.27831414 -0.26167172 -1.3757123 0.7713521 -0.71266 0.9283966 -0.2984899 0.6482945 -0.71061206 1.030716 -0.32899174 0.81121117 -2.0026577 0.34771237 0.3242586 0.006913505
1117 -1.2669617 -1.0326678 -0.22394249 -0.44761917 -1.6495271 -2.122745 -0.36999136 0.09410884 -0.71268713 -0.9384331 -1.7096571 0.011484138 0.11494437 0.2793645 -0.2909843 1.5845811 0.39967966 -0.09105076 0.18223119 -0.15654744 0.6208142 -0.3582858 -0.17157646 -1.3599945 0.27736655 0.467168 -1.4655824 0.13259555 -0.31963295 -0.005779444 -0.62951064 -0.6123705
652 -0.6122596 -1.057258 0.24384311 0.38693544 -0.4210574 -1.2377056 -1.0304726 1.2859646 -1.3889662 -0.6208667 -0.022559056 0.5834182 1.2320951 0.086804286 -0.032133088 -1.5516297 1.2271599 -1.1127591 -0.78740674 0.4426323 -0.7905743 0.71846867 -0.21269472 -1.1365087 0.09783189 0.60344136 -1.1289201 0.11602553 -0.092291415 -0.5650448 1.0026395 0.52534956
1510 -0.5533313 0.962179 -0.019249229 -0.11159061 -1.826334 0.026162729 0.36719403 2.7684727 0.2965783 -0.8023129 -0.44314986 -0.02168466 0.48171836 0.0029898065 -0.33767503 1.1760173 -0.37632588 0.43513528 -0.08678553 -0.015234623 -0.667869 -0.20871226 -0.78907543 0.35632986 -0.5402292 0.015390531 -1.484724 -0.5332432 -0.31883922 -0.15368964 1.3217291 -0.35852802
896 0.28289595 0.12310692 -0.3415542 -0.45268878 -1.4156338 -0.15728523 0.083901934 0.69536686 -0.17093752 -0.6169855 1.1127822 0.8086465 0.8712717 -0.8009196 1.0306803 -1.2437023 0.5131239 0.88869023 1.1244067 0.3599108 -1.3228031 0.8950948 -0.74286664 -0.07051571 -1.2298977 0.8566263 -1.3992771 1.4992248 -0.7364323 0.0403923 0.63734215 1.1909994
1257 -0.012898967 -0.66843504 -1.0319666 0.050234295 0.33185518 -0.5901034 -0.53465515 1.3138033 -1.0623035 -1.3582107 -0.5260817 1.7930267 0.38001072 -0.23856981 0.7790648 0.010425869 0.71485543 0.01735415 -0.024071757 -1.0653386 -0.3900431 -0.56224275 -0.6422863 0.7921591 -0.7551695 0.054294545 -0.94672966 0.76483685 -0.8881203 0.70269185 0.6470018 -1.350375
126 -0.29710966 0.20985459 -1.1562105 -0.70507145 -1.6568081 -0.20451045 0.6920075 0.91811556 -1.1858711 -0.95670927 0.14628942 0.9262619 0.34573895 -0.438677 -0.6634525 -0.6449743 1.0694308 -0.5602239 -0.31798482 0.7459527 0.062402662 0.5908978 -0.8433609 -0.8697936 1.0060863 -0.1714465 -1.2387242 0.80130017 -0.42315245 1.0417997 0.16304131 -1.0107467
1704 0.046167508 -1.2208146 0.49081197 -0.7170467 -0.2606826 -1.4232938 -0.11046155 0.14229676 -1.8515427 -1.9485345 -1.1666719 -1.4882605 -0.27899656 -0.49510604 -0.5122635 0.47333202 0.34516713 -0.29677784 -1.1602625 -0.12533636 -0.24951252 -0.20442645 -0.32227263 0.22782932 -0.107568756 1.0266534 -1.0012172 -0.37209192 -0.7925726 -1.1320771 0.9737085 -1.8543777
342 0.12144826 -0.05544905 -0.43934092 -0.308602 -0.31217834 -3.2709262 -0.9540778 1.258928 -1.3018807 -1.6686623 -1.6089556 -1.3122284 1.2283885 -0.68567014 2.919148 0.37078285 2.1774428 -1.4292893 -0.8768771 -1.045877 0.30630678 1.2779094 0.9870378 -0.31507182 -0.65922916 -0.029038548 -1.5140451 1.9816277 -0.61349654 -0.41594586 1.462176 0.31043816
700 -0.54072005 0.064749464 0.8907758 -0.51036793 -0.051520832 -1.932257 0.82229245 0.60482 -0.21735829 0.6286357 0.11132394 0.6626408 0.10284104 -0.15466702 1.6925662 -0.07299165 -0.21779002 0.03876754 -0.5063492 -0.31682113 -0.99467325 0.47738945 -1.2223812 0.40971577 -0.37816274 1.9483998 -1.5317106 0.106437504 -0.24733068 0.026082313 0.973667 -0.36679834
139 -1.8197001 -0.24928424 -1.0756344 -0.13778071 -1.5941103 0.016141735 -0.5290707 0.43103462 -0.80856186 -0.65915835 0.98354673 0.27312088 0.4918687 0.60863006 -0.06346685 0.66196036 0.23812361 0.26100516 -1.3483887 0.76633877 -0.3944112 0.73627406 -0.8383303 0.18784483 -0.8871154 1.3391954 -0.38161248 0.065197796 -1.4548753 0.83811617 0.110683456 0.0072133774
891 -0.050970227 0.5996414 -0.22567852 -0.59627485 -1.1719722 0.48425093 -0.09440724 1.0429636 -0.12215428 -0.6505217 1.3926212 0.66273373 1.065774 -0.5430837 0.96214867 -0.5048686 0.82238764 0.27389047 0.6629892 -0.023068441 -1.4017042 0.5524612 -0.27270773 0.49741265 -0.7595024 0.5923141 -1.27168 1.2802222 -0.9214228 -0.21742797 0.56781363 0.7525241
1488 -0.91148144 -0.47359166 -0.71821076 -0.7583855 -0.88036436 0.14733762 1.1933508 1.0925443 0.13063681 -0.95920235 -0.194285 -0.63593936 -0.59738296 -0.9786363 0.1422986 0.41423687 0.7134069 0.63651997 0.5847286 1.0687608 -0.24752992 -1.0232126 -1.4540778 1.0177367 -0.7801146 1.5839792 -1.2480993 0.6640771 0.3173774 -0.07215559 1.5441098 0.096861854
611 0.6065178 -0.3892746 -0.7638281 -0.3858689 -1.4812042 -0.5788633 0.5879952 0.4910248 -1.3750718 -1.5776317 -0.33522004 0.37537274 -0.24394168 0.88499576 1.0755272 -0.53610945 0.97119343 1.3146323 0.6037163 0.19934787 -1.2158761 -0.7804184 -1.0499517 -0.47709855 0.96252716 0.9861312 -1.0662495 -0.0491577 0.07840037 -0.5986718 0.05027795 0.7439718
1328 -0.5035952 0.12341724 -0.2869602 -0.78357166 0.14664757 -0.5617679 -0.3815162 2.081039 -2.5560448 -1.3763633 0.08056919 1.7063005 -0.4622888 -0.22482036 0.7136617 0.72661865 0.3037194 -0.5766105 -0.18194282 -0.018469313 -0.3264205 0.23294403 -0.31831527 0.7936225 0.45347852 1.1590111 -1.0478439 -0.1278036 -0.5012016 -0.4216673 -0.6811381 0.6694245
140 -1.9153528 -0.2575721 -1.1392964 -0.24892995 -1.5180339 0.18654186 -0.28474328 0.12814763 -0.9370917 -0.40051955 0.67007 -0.10196646 0.24245237 0.4718226 0.45899668 0.76976925 0.35388806 0.27047443 -1.2947245 0.7163166 -0.47380838 0.69267243 -0.9596329 -0.17124584 -1.1840851 1.3911344 -0.41402313 -0.07409999 -1.3273423 0.81031144 0.48259845 -0.23944378
671 -1.1428194 0.3945791 -0.61275804 -1.0309851 -1.0449365 -1.4199541 -1.3925722 1.4494164 -0.40474266 -0.6199247 -0.74008864 0.057186455 0.2697749 -0.31539556 -1.0687664 -0.5918651 1.1291394 -0.5239222 1.2639747 -0.11531057 0.3379288 0.010137665 -0.7249181 0.13327618 -1.3199912 0.28749537 -0.85549086 1.0865782 -0.63346887 -0.1989227 -0.020464268 0.8940036
1162 0.3147291 0.7457744 0.6953096 -0.79467535 -0.9833254 -0.2055748 0.9711589 0.64665735 -1.0357718 -1.1634573 0.16946623 -0.24138634 -0.3993776 1.5400169 -0.082023695 0.34044868 1.8992075 -0.77099067 -0.13226302 -1.104677 0.077131644 -0.011102501 -0.98415196 -0.53560084 -0.76519525 0.39996752 -1.4459771 -0.15247442 -1.7656325 0.17422153 -0.098123655 0.039518975
1329 -0.41908863 -0.14678615 -0.533393 -0.49319464 0.2732629 -0.8176796 -0.15074311 2.2186356 -2.3646207 -1.4636712 -0.13320294 1.4205867 -0.39591923 -0.6593765 0.72583413 0.8076875 0.19218084 -0.5870975 0.22973059 -0.155055 -0.5668276 0.37055847 -0.52641803 0.6648229 0.30714023 0.81576777 -0.9170627 -0.001756396 -0.13615303 -0.29846355 -0.5143457 0.5092091
1614 -0.13746706 -1.2145549 1.1429532 0.53370917 -1.1889181 -1.1122128 -0.17955348 1.2731676 -0.6119064 -1.4590924 -0.7998012 -0.1958511 -0.24874459 0.06583778 -1.1449997 1.4398979 1.2753106 -0.20252353 -0.30458817 0.12215062 0.42979345 -0.6661111 -1.3022813 -0.09604698 0.09785017 1.492372 -0.10920725 1.083836 0.29732984 -0.77355456 -0.38696027 -0.8719176
43 0.021740716 -1.0984575 -0.9110549 -0.5936949 -1.8622154 -0.37182838 -0.54991233 1.657408 -1.6773578 0.8503895 0.8252332 -0.93202657 -0.13189481 -0.98833716 0.94127536 0.124286406 0.02260238 0.22217652 -0.5062783 -0.95246476 0.15203738 0.49234846 -1.3782175 0.30989027 -0.06414274 1.1826786 -0.740306 0.60094 -0.5263511 -0.17152064 -0.846752 -0.54216886
1163 0.5064762 0.9457697 0.8247367 -0.6572148 -0.896201 -0.3354601 0.9561071 0.6700173 -0.6156413 -0.6747264 0.19432627 -0.18311584 -0.36693618 1.1873649 -0.051021867 0.4107101 2.0114853 -0.89531535 -0.15614371 -0.98048455 -0.16781145 -0.40625036 -1.1342347 -0.74888945 -0.9541422 0.8869699 -1.6414454 -0.109982274 -1.8141437 -0.07393306 -0.010277674 -0.10388726
672 -0.90056413 0.074622475 -1.004305 -1.0659488 -1.1416016 -0.79698527 -1.2873715 1.2235991 -0.45132363 -0.9301773 -0.877421 0.18073538 0.20052585 -0.5203419 -1.2257088 -0.7090958 0.91855764 -0.31526157 1.0098406 -0.07806901 0.18361066 -0.0098651135 -0.8093311 0.052413557 -1.2097594 0.518599 -0.54148906 0.9884388 -0.8799873 -0.16890678 0.013023909 1.0148495
